svm_type c_svc
kernel_type linear
nr_class 4
total_sv 1655
rho -0.3211885706610602 0.991175975749031 0.5956722552718212 0.8046352242195135 -0.07921680313665294 -0.36898909586980894
label 1 2 3 4
probA -1.6984089943919225 -2.113211528991105 -2.6183816770014996 -2.907673177359749 -2.212274780409811 -1.7233510589052785
probB -0.7436654630292836 -1.0340587890426174 -0.8618841114144835 -0.5041941584037914 -0.6072026442363192 -0.3884945943795334
nr_sv 836 585 181 53
SV
0.0 0.05474449556237043 0.0 2:1.0 161:1.0 166:1.0 193:1.0 196:1.0 301:1.0 399:1.0 430:1.0 
0.0 0.98345114348587 0.0 246:1.0 399:1.0 
0.0 1.0 0.0 210:1.0 235:1.0 250:1.0 255:1.0 337:1.0 399:1.0 
0.0 0.33619376484638436 0.0 130:1.0 399:1.0 418:1.0 
0.0 0.004893044671784697 0.0 199:1.0 281:1.0 366:1.0 399:1.0 431:1.0 
0.0 0.1507947999820234 0.0 169:1.0 323:1.0 399:1.0 
1.0 0.0 0.0 6:1.0 104:1.0 152:1.0 194:1.0 209:1.0 212:1.0 228:1.0 343:1.0 399:1.0 
1.0 0.0 0.0 88:1.0 130:1.0 147:1.0 152:1.0 245:1.0 304:1.0 399:1.0 
0.1513554518550468 0.0 0.0 8:1.0 63:1.0 146:1.0 227:1.0 399:1.0 
0.0 0.06977106417386664 0.0 10:1.0 38:1.0 62:1.0 81:1.0 90:1.0 382:1.0 399:1.0 
0.0 0.8975187304775707 0.0 130:1.0 217:1.0 254:1.0 305:1.0 366:1.0 399:1.0 
0.0 0.0 0.30531967442607116 21:1.0 32:1.0 33:1.0 63:1.0 399:1.0 435:1.0 
0.5709984519973657 0.0 0.0 21:1.0 81:1.0 152:1.0 196:1.0 281:1.0 348:1.0 382:1.0 384:1.0 399:1.0 406:1.0 
0.0 0.7908333793886344 0.09179987603270645 6:1.0 74:1.0 130:1.0 288:1.0 300:1.0 309:1.0 399:1.0 413:1.0 422:1.0 
0.0 0.0 1.0 263:1.0 373:1.0 399:1.0 
0.0 0.18405189111647793 0.6222712114068468 399:1.0 420:1.0 
0.0 0.0 0.0827747527465085 109:1.0 130:1.0 255:1.0 259:1.0 330:1.0 399:1.0 
1.0 0.0 0.0 2:1.0 399:1.0 400:1.0 
0.12750991606989068 0.0 0.0489633357181396 52:1.0 66:2.0 282:1.0 310:1.0 399:1.0 
1.0 0.0 0.0 41:1.0 152:1.0 247:1.0 276:1.0 345:1.0 399:1.0 414:1.0 
1.0 0.0 0.0 43:1.0 147:1.0 152:1.0 194:1.0 210:1.0 222:1.0 262:1.0 343:1.0 399:1.0 
0.5793007583083019 0.0 0.0 45:1.0 89:1.0 138:1.0 140:1.0 147:1.0 152:1.0 399:1.0 
1.0 0.0 0.0 53:1.0 56:1.0 62:1.0 143:2.0 152:1.0 317:2.0 373:1.0 399:1.0 
0.0 0.0059582319412896595 0.16941641924775996 2:1.0 24:1.0 88:1.0 
1.0 0.0 0.30575287101027604 2:1.0 31:1.0 50:1.0 152:1.0 303:1.0 323:1.0 399:1.0 424:1.0 
1.0 0.0 0.0 12:1.0 21:1.0 152:1.0 166:1.0 304:1.0 337:1.0 343:1.0 371:1.0 399:1.0 
1.0 0.0 0.0 152:1.0 249:1.0 382:1.0 387:1.0 399:1.0 
0.0 0.5599085189166055 0.0 78:1.0 399:1.0 
1.0 0.0 0.0 21:1.0 62:1.0 208:1.0 298:1.0 399:1.0 
0.0 0.0 0.1382017274656563 2:1.0 37:1.0 110:2.0 289:1.0 399:1.0 
0.34170098347489947 0.0 0.0 254:2.0 399:1.0 427:1.0 431:1.0 
0.0 0.0 0.37270084318582053 21:1.0 153:1.0 226:1.0 255:1.0 340:1.0 343:1.0 399:1.0 424:1.0 
0.0 0.6187322027912718 0.0 28:1.0 196:1.0 256:1.0 277:1.0 399:1.0 
1.0 0.0 0.0 145:1.0 152:1.0 284:1.0 330:1.0 384:1.0 399:1.0 
0.0 0.5753438839303409 0.0 2:1.0 8:1.0 63:1.0 317:1.0 362:1.0 366:1.0 397:1.0 399:1.0 425:1.0 
0.0 0.9949086178229553 0.0 88:1.0 130:1.0 245:1.0 329:1.0 399:1.0 
0.0 1.0 0.0 8:1.0 210:1.0 286:1.0 294:1.0 394:1.0 399:1.0 
1.0 0.0 0.14463701322082115 2:1.0 81:1.0 130:1.0 152:1.0 166:1.0 183:1.0 207:1.0 262:1.0 323:1.0 399:1.0 
0.0 0.7653840164107993 0.0 9:1.0 255:1.0 305:1.0 352:1.0 399:1.0 
1.0 1.0 0.5957367360433465 258:1.0 
1.0 0.0 0.0 16:1.0 25:1.0 41:1.0 109:1.0 113:1.0 133:1.0 208:1.0 240:1.0 305:1.0 310:1.0 323:1.0 399:1.0 413:1.0 
0.6663392367448259 0.0 0.05902473750396776 16:1.0 133:1.0 287:1.0 365:1.0 399:1.0 423:1.0 424:1.0 
1.0 0.0 0.0 21:1.0 55:1.0 104:1.0 152:1.0 153:1.0 317:1.0 323:1.0 399:1.0 
0.0 0.0 1.0 18:3.0 79:1.0 175:1.0 337:1.0 353:1.0 382:1.0 399:1.0 419:1.0 
0.0 1.0 0.0 235:1.0 305:1.0 399:1.0 408:1.0 
0.0 0.5027457614552597 0.0 51:1.0 130:1.0 161:1.0 193:1.0 317:1.0 399:1.0 424:1.0 
0.0 0.028066609431342204 0.0 63:1.0 114:1.0 130:1.0 136:1.0 141:2.0 172:1.0 194:1.0 247:1.0 255:1.0 332:1.0 399:1.0 
0.0 0.9860151454435299 0.6634415833588381 130:1.0 180:1.0 399:1.0 
0.0 0.008320107063759881 0.0 31:1.0 146:2.0 154:1.0 281:1.0 399:1.0 413:1.0 
1.0 1.0 0.0 2:1.0 152:1.0 235:1.0 309:1.0 399:1.0 
1.0 0.0 0.0 133:1.0 208:1.0 212:1.0 366:1.0 399:1.0 424:1.0 433:1.0 
0.0 1.0 0.0 130:1.0 153:1.0 235:1.0 399:1.0 
1.0 0.0 0.0 208:1.0 323:1.0 382:1.0 399:1.0 412:1.0 
1.0 0.0 0.0 152:1.0 338:1.0 399:2.0 
0.0 0.9423135509730822 0.0 31:1.0 130:1.0 171:1.0 175:1.0 194:1.0 214:1.0 269:1.0 399:1.0 
0.0 0.0 0.19239426258374845 15:1.0 146:1.0 318:1.0 323:1.0 382:1.0 399:1.0 417:1.0 
0.0 1.0 0.0 81:1.0 143:1.0 196:1.0 282:1.0 361:1.0 374:1.0 394:1.0 399:1.0 424:1.0 
0.0 0.0015665012783319969 0.0 42:1.0 66:1.0 122:1.0 138:1.0 147:1.0 374:1.0 382:1.0 399:1.0 
1.0 0.0 0.052484610444358905 31:1.0 152:1.0 194:1.0 374:1.0 399:1.0 
1.0 0.0 0.0 8:1.0 56:1.0 255:1.0 262:1.0 323:1.0 395:1.0 399:1.0 
0.0 0.002745416355157449 0.0 75:1.0 162:1.0 242:1.0 251:1.0 373:1.0 397:1.0 399:1.0 
1.0 0.0 0.0 152:1.0 212:1.0 399:1.0 
0.0 0.06876245057964298 0.0 38:1.0 146:1.0 181:1.0 196:1.0 227:1.0 365:1.0 399:1.0 
0.7927376270335005 0.0 0.02088973043875687 84:1.0 123:1.0 130:2.0 151:1.0 152:1.0 227:1.0 229:1.0 232:1.0 266:1.0 359:1.0 395:1.0 399:1.0 424:1.0 
1.0 0.0 0.5741143083731659 147:1.0 152:2.0 382:1.0 399:1.0 419:1.0 
0.0 1.0 0.0 235:1.0 317:1.0 399:1.0 
0.0 1.0 0.0 212:1.0 235:1.0 382:1.0 399:1.0 
0.0 0.9119665423276376 0.0 2:1.0 8:1.0 142:1.0 153:1.0 167:1.0 212:1.0 307:1.0 399:1.0 
1.0 0.0 0.0 8:1.0 140:1.0 147:1.0 152:1.0 343:1.0 399:1.0 
0.0 1.0 0.0 21:1.0 138:1.0 235:1.0 317:1.0 399:1.0 414:1.0 
0.0 0.7607610405730749 0.0 199:1.0 367:1.0 374:1.0 399:1.0 
1.0 0.0 0.0 8:1.0 152:1.0 194:1.0 208:1.0 254:1.0 399:1.0 414:1.0 
0.0 0.030532248432156826 0.0 42:1.0 115:1.0 135:1.0 165:1.0 281:1.0 317:1.0 382:1.0 399:1.0 
1.0 0.0 0.0 2:1.0 8:2.0 152:1.0 212:1.0 255:1.0 371:1.0 376:1.0 399:1.0 
1.0 0.0 0.0 8:1.0 152:1.0 352:1.0 367:1.0 399:1.0 
1.0 0.0 0.0 152:1.0 160:1.0 194:1.0 212:1.0 399:1.0 428:1.0 
1.0 0.0 0.015427969002607136 31:1.0 80:1.0 152:1.0 206:1.0 399:1.0 424:1.0 
0.041831691525007694 0.0 0.0 25:1.0 241:1.0 323:1.0 399:1.0 413:1.0 
0.9200619330327934 0.0 0.0 229:1.0 399:1.0 413:1.0 
1.0 0.0 0.0 6:1.0 126:1.0 131:1.0 212:1.0 343:1.0 399:1.0 427:1.0 
1.0 0.0 0.0 152:1.0 317:1.0 365:1.0 399:1.0 
0.0 0.24835999038984571 0.0 130:1.0 147:1.0 166:1.0 365:1.0 399:1.0 400:1.0 
0.2858647602918834 0.0 0.0 16:1.0 47:1.0 126:1.0 323:1.0 399:1.0 
0.0 0.5902237110951263 0.0 62:1.0 85:1.0 282:1.0 317:1.0 383:1.0 399:1.0 
1.0 0.0 0.0 109:1.0 135:2.0 173:1.0 208:2.0 399:1.0 
1.0 0.0 0.0 31:1.0 152:1.0 161:1.0 294:1.0 323:1.0 382:1.0 399:1.0 
0.0 1.0 0.0 2:2.0 163:1.0 237:1.0 399:1.0 
0.0 0.0051843242277582625 0.0 130:1.0 209:1.0 237:1.0 377:1.0 399:1.0 413:1.0 
1.0 0.0 0.0832796602589736 85:1.0 116:1.0 128:1.0 153:1.0 255:1.0 399:1.0 413:1.0 424:1.0 428:1.0 434:1.0 
0.4647987136081006 0.0 0.0 76:1.0 110:2.0 210:1.0 292:1.0 382:1.0 399:1.0 
1.0 0.42604828235454645 0.0 41:1.0 147:1.0 152:1.0 193:1.0 194:1.0 212:1.0 399:1.0 
0.0 1.0 0.0 42:1.0 81:1.0 130:1.0 153:1.0 310:1.0 399:1.0 
0.0 0.0 0.1873512033917781 66:1.0 128:1.0 142:1.0 166:1.0 179:1.0 183:1.0 337:1.0 365:1.0 399:1.0 
1.0 0.0 0.0 2:1.0 21:1.0 31:1.0 152:1.0 366:2.0 399:1.0 
1.0 0.0 0.0 2:1.0 85:1.0 134:1.0 152:1.0 232:1.0 361:1.0 399:1.0 413:1.0 
1.0 0.0 0.0 152:1.0 399:1.0 
1.0 0.0 0.0 152:1.0 209:1.0 305:1.0 382:1.0 399:1.0 
1.0 0.0 0.0 130:1.0 147:1.0 152:1.0 366:2.0 399:1.0 
0.36629573011392874 0.0 0.0 126:1.0 399:1.0 
0.0 1.0 0.0 16:1.0 130:2.0 140:1.0 247:1.0 269:1.0 310:1.0 323:1.0 393:1.0 399:1.0 
0.26092518681883814 0.0 0.0 103:1.0 399:1.0 
0.0 0.019175745778047905 0.14762188896983114 19:1.0 110:1.0 254:1.0 288:1.0 360:1.0 399:1.0 
1.0 0.0 0.0 77:1.0 113:1.0 179:1.0 194:1.0 208:1.0 399:1.0 
0.58228631707492 0.0 0.0 8:1.0 381:1.0 399:1.0 
0.0 0.0 0.16768412748057387 130:1.0 295:1.0 323:1.0 387:1.0 399:1.0 
1.0 0.0 0.0 37:1.0 119:1.0 152:2.0 175:1.0 255:1.0 337:1.0 399:1.0 
0.0 0.48099216888446067 0.0 169:1.0 206:1.0 366:1.0 399:1.0 
0.0 0.0 0.0068149074157731315 21:1.0 282:1.0 367:1.0 399:1.0 425:1.0 
0.03725178563610672 0.0 0.0 181:1.0 210:1.0 399:1.0 
0.0 0.7498674537829506 0.0 92:1.0 194:1.0 266:1.0 399:1.0 
1.0 0.0 0.0 89:1.0 201:1.0 208:3.0 382:4.0 383:1.0 397:1.0 399:2.0 424:1.0 
0.0 1.0 0.0 130:1.0 147:1.0 166:1.0 235:1.0 304:1.0 399:2.0 402:1.0 416:1.0 
1.0 0.0 0.3310286084008034 30:1.0 109:1.0 119:1.0 152:1.0 153:1.0 399:1.0 
0.0 1.0 0.0 30:1.0 39:1.0 130:1.0 235:1.0 317:1.0 399:1.0 
1.0 0.0 0.0 116:1.0 175:1.0 382:1.0 399:1.0 
1.0 0.0 0.0 130:1.0 134:1.0 152:1.0 166:1.0 382:1.0 399:1.0 406:1.0 
0.29794700017252634 0.0 0.0 2:1.0 30:1.0 89:1.0 152:1.0 162:1.0 266:1.0 399:1.0 407:1.0 
0.0 0.025990179113056323 0.0 106:1.0 130:1.0 212:1.0 310:1.0 343:1.0 352:1.0 399:1.0 412:1.0 433:1.0 
1.0 0.0 0.04555938063206782 152:1.0 323:1.0 399:1.0 
0.0 0.0 0.06211627893294864 3:1.0 63:1.0 143:1.0 197:1.0 224:1.0 226:1.0 254:2.0 295:2.0 399:1.0 
1.0 0.0 0.0 28:1.0 208:1.0 399:1.0 
1.0 0.0 0.0 2:1.0 14:1.0 63:1.0 130:1.0 183:1.0 208:1.0 212:1.0 281:1.0 317:2.0 349:1.0 374:1.0 399:1.0 
1.0 0.0 0.0 53:1.0 152:1.0 166:1.0 208:1.0 382:1.0 399:1.0 
0.013276627966501338 0.0 0.0 71:1.0 113:1.0 266:1.0 290:1.0 399:1.0 400:1.0 
0.23901660464395844 0.0 0.0 63:1.0 290:1.0 399:1.0 
0.022555100131409107 0.001347620174439319 0.0 229:1.0 366:1.0 383:1.0 399:1.0 434:1.0 
1.0 0.0 0.07919618369563428 41:1.0 145:1.0 152:1.0 330:1.0 399:1.0 
0.0 0.8684566483061479 0.06638590206954925 2:1.0 9:1.0 21:1.0 117:1.0 190:1.0 279:1.0 399:1.0 
0.0 1.0 0.0 130:1.0 194:1.0 264:1.0 296:1.0 317:1.0 382:1.0 399:1.0 
0.06823773584804484 0.334812035314905 0.02623782263887944 11:1.0 38:1.0 152:1.0 194:1.0 212:1.0 244:1.0 310:1.0 323:1.0 365:1.0 378:1.0 399:1.0 
1.0 0.0 0.0 12:1.0 104:1.0 130:1.0 138:1.0 152:1.0 282:1.0 376:1.0 399:1.0 407:1.0 
1.0 0.0 0.0 10:1.0 148:1.0 183:1.0 228:1.0 399:1.0 
0.0 0.023353042118849372 0.0 63:1.0 146:1.0 147:1.0 247:1.0 399:1.0 
0.0 0.7864232322112944 0.0 54:1.0 212:1.0 279:1.0 399:1.0 419:1.0 
0.0 0.0 0.35766015102916177 289:1.0 399:1.0 
0.0 0.996858073874722 0.0 81:1.0 194:1.0 254:1.0 389:1.0 399:1.0 
0.5745754980118091 0.0 0.0 212:1.0 366:1.0 399:1.0 400:1.0 
0.0 0.0 0.04839394686930026 130:2.0 242:1.0 287:1.0 289:1.0 317:1.0 343:1.0 399:1.0 424:1.0 
1.0 0.0 0.0 8:1.0 47:1.0 59:1.0 134:1.0 152:1.0 163:1.0 184:1.0 352:1.0 374:1.0 399:1.0 
0.0 0.0 0.19426811535822897 288:1.0 292:1.0 399:1.0 
0.0 0.04472743666927501 0.0 130:1.0 189:1.0 399:1.0 
0.0 0.008226304163151912 0.0 76:1.0 130:1.0 242:1.0 330:1.0 399:1.0 
0.5862472548165462 0.0 0.0 21:1.0 37:1.0 88:1.0 152:1.0 183:1.0 330:1.0 399:1.0 
1.0 0.0 0.0 31:1.0 147:1.0 152:1.0 183:2.0 247:1.0 399:1.0 
0.0 0.0 0.3999402120215695 134:1.0 138:1.0 183:1.0 367:1.0 399:1.0 
1.0 0.0 0.0 8:1.0 17:1.0 63:1.0 183:1.0 208:1.0 209:1.0 271:1.0 382:1.0 399:1.0 422:1.0 
0.0 0.9962724509520908 0.0 130:2.0 175:1.0 183:1.0 217:1.0 282:1.0 294:1.0 343:1.0 399:1.0 
0.10361483358251906 0.0 0.0 63:1.0 183:1.0 212:1.0 376:1.0 399:1.0 
0.0 0.18314067849270085 0.0 119:1.0 130:1.0 189:1.0 254:1.0 304:1.0 310:1.0 343:1.0 399:1.0 
1.0 0.0 0.0 2:1.0 73:1.0 130:1.0 152:1.0 367:1.0 399:1.0 
1.0 0.0 0.0 76:1.0 131:1.0 196:1.0 399:1.0 
0.0 0.16771192376134064 0.0 12:1.0 153:1.0 161:1.0 165:1.0 179:1.0 370:1.0 399:1.0 
0.0 0.39985740412238835 0.0 50:1.0 161:1.0 222:1.0 281:1.0 317:1.0 376:1.0 399:1.0 
0.0 0.646397844943255 0.0 140:1.0 153:1.0 245:1.0 317:1.0 370:1.0 399:1.0 
1.0 0.0 0.0 8:1.0 32:1.0 50:1.0 152:1.0 177:1.0 212:1.0 214:1.0 399:1.0 
1.0 0.0 0.0 152:1.0 161:1.0 179:1.0 317:2.0 399:1.0 
1.0 0.0 0.0 41:1.0 152:1.0 363:1.0 382:1.0 399:1.0 
1.0 0.2566037774785293 0.0 152:2.0 281:1.0 399:1.0 405:1.0 413:1.0 414:1.0 
0.14413060999473495 0.0 0.0 13:1.0 114:1.0 245:1.0 297:1.0 335:1.0 399:1.0 
0.8880882861104097 0.0 0.0 8:1.0 51:1.0 83:1.0 247:1.0 282:1.0 399:1.0 432:1.0 
1.0 0.0 0.0 61:1.0 146:1.0 178:1.0 183:1.0 208:1.0 399:1.0 
1.0 0.0 0.7286032315332462 9:1.0 152:1.0 399:1.0 
0.0 0.4655335112476687 0.01444954158043268 114:1.0 160:1.0 295:1.0 394:1.0 399:1.0 
1.0 0.0 0.0 120:1.0 152:1.0 310:1.0 399:1.0 
0.0 0.2538846308441541 0.0 237:1.0 254:1.0 399:1.0 
0.0 0.011880527868383029 0.0 130:1.0 146:1.0 255:1.0 315:1.0 352:1.0 399:1.0 
0.0 0.19971739575349953 0.0 124:1.0 245:1.0 255:1.0 305:1.0 311:1.0 330:1.0 382:1.0 399:1.0 
0.0 0.999645540566588 0.0 21:4.0 38:1.0 178:1.0 254:1.0 255:1.0 382:1.0 399:1.0 
0.0 0.012522738414805105 0.0 89:1.0 130:1.0 212:1.0 281:1.0 306:1.0 376:1.0 398:1.0 399:1.0 419:2.0 
0.0 1.0 0.0 113:1.0 130:1.0 235:1.0 399:1.0 
0.0 1.0 0.0 130:1.0 171:1.0 226:1.0 235:1.0 256:1.0 303:1.0 399:1.0 
0.0 1.0 0.0 140:1.0 235:1.0 387:1.0 399:1.0 
1.0 0.0 0.244004626137864 152:1.0 202:1.0 217:1.0 367:1.0 399:1.0 
0.8125896363091246 0.0 0.0 8:2.0 290:1.0 399:1.0 
0.3226684285784938 0.0 0.0 8:1.0 63:1.0 362:1.0 399:1.0 
0.0 1.0 0.0 8:1.0 130:1.0 314:1.0 367:1.0 399:1.0 422:1.0 
0.5028990545352389 0.0 0.0 8:1.0 73:1.0 130:1.0 152:1.0 175:1.0 209:2.0 217:1.0 309:1.0 399:1.0 424:1.0 
0.04653706551709604 0.0 0.0 6:1.0 8:1.0 133:1.0 274:1.0 304:1.0 309:1.0 399:1.0 413:1.0 430:2.0 
0.4810655438380939 0.0 0.0 41:1.0 104:1.0 136:1.0 255:2.0 348:1.0 399:1.0 431:1.0 
1.0 0.0 0.0 14:1.0 147:1.0 181:1.0 183:1.0 208:1.0 352:1.0 366:1.0 399:1.0 
1.0 0.0 0.0 25:1.0 147:1.0 152:1.0 382:1.0 399:1.0 
1.0 0.0 0.0 104:1.0 147:1.0 152:1.0 175:1.0 210:1.0 212:1.0 343:1.0 367:1.0 373:1.0 399:1.0 
0.0 0.08462694037519765 0.0 114:1.0 136:1.0 147:1.0 194:1.0 255:1.0 374:1.0 399:1.0 
0.0 1.0 0.0 147:1.0 255:1.0 330:1.0 399:1.0 
0.0 0.6299948052358453 0.0 62:1.0 147:1.0 245:1.0 399:1.0 413:1.0 
0.0 0.5811928649462985 0.0 63:1.0 147:1.0 300:1.0 399:1.0 413:1.0 
1.0 0.0 0.0 208:1.0 382:1.0 399:1.0 422:1.0 
0.7972733619567197 0.0 0.0 179:1.0 248:1.0 399:1.0 
1.0 0.0 0.0 152:1.0 374:1.0 399:1.0 
0.2933524257098457 0.0 0.0 8:1.0 391:1.0 399:1.0 427:1.0 
1.0 0.0 0.4709113111419095 8:1.0 21:1.0 152:1.0 399:1.0 424:1.0 
0.0 0.9864712938747939 0.0 21:1.0 99:1.0 399:1.0 
0.0 1.0 0.0 2:2.0 51:1.0 147:1.0 247:1.0 266:1.0 282:1.0 366:2.0 399:1.0 419:2.0 
1.0 0.0 0.0 12:1.0 152:1.0 382:1.0 397:1.0 399:1.0 
1.0 0.0 0.0 152:1.0 382:1.0 399:1.0 
1.0 0.0 0.0 2:1.0 21:1.0 152:1.0 399:1.0 
1.0 0.6313096493841049 0.0 6:1.0 31:1.0 51:1.0 130:1.0 208:1.0 282:1.0 399:1.0 
0.14233703063763292 0.0 0.0 2:1.0 6:1.0 31:2.0 153:1.0 212:1.0 366:1.0 376:1.0 398:2.0 399:1.0 
0.0 1.0 0.0 63:1.0 235:1.0 307:1.0 351:1.0 399:1.0 412:1.0 
0.49503053442479994 0.0 0.0 106:1.0 153:1.0 161:1.0 399:1.0 427:1.0 
0.4451797333008895 0.0 0.0 31:1.0 53:1.0 68:1.0 81:1.0 152:1.0 183:1.0 212:1.0 347:1.0 366:1.0 399:1.0 
0.0 1.0 0.0 41:2.0 42:1.0 113:1.0 220:1.0 235:1.0 323:1.0 399:1.0 403:1.0 
0.4777670113288334 0.0 0.0 322:1.0 323:1.0 399:1.0 
0.0 0.9552916560608443 0.0 332:1.0 399:1.0 
0.09162533731950366 0.0 0.0 196:1.0 376:1.0 394:1.0 399:1.0 
1.0 0.0 0.0 140:1.0 208:1.0 399:1.0 
1.0 1.0 0.0 10:1.0 208:1.0 235:1.0 254:1.0 343:1.0 399:1.0 422:1.0 
0.0 0.994306439952029 0.0 50:1.0 290:1.0 374:1.0 394:1.0 399:1.0 
1.0 0.0 0.0 147:1.0 152:1.0 183:1.0 194:1.0 399:1.0 
0.0 0.19570428780790475 0.0 54:1.0 212:1.0 399:1.0 
0.6340816846293514 0.0 0.0 175:1.0 399:1.0 
0.0 0.0 0.15086226915075213 2:1.0 85:1.0 269:1.0 288:1.0 399:1.0 
0.0 0.07531388600608689 0.0 189:1.0 212:1.0 247:1.0 399:1.0 
0.0 0.0 0.04735907125772301 194:1.0 262:1.0 399:1.0 
0.0 0.3436434036881111 0.0 8:1.0 153:1.0 360:1.0 399:1.0 
1.0 0.0 0.0 136:1.0 381:1.0 399:1.0 
0.37901140194105076 0.0 0.0 263:1.0 399:1.0 
1.0 0.0 0.0 2:1.0 114:1.0 138:1.0 152:1.0 194:1.0 334:1.0 397:1.0 399:1.0 
0.0 0.0 0.17831160988017966 24:1.0 216:1.0 
1.0 0.0 0.0 8:1.0 60:1.0 152:1.0 266:1.0 317:1.0 399:1.0 
0.0 0.0 1.0 255:1.0 340:1.0 399:1.0 
0.8308696160725341 0.0 0.0 182:1.0 212:1.0 399:1.0 
0.11659162899618396 0.0 0.574753991708184 399:1.0 423:1.0 
0.7230064692588709 0.0 0.0 174:1.0 373:2.0 399:1.0 
1.0 0.37459508717324347 0.0 208:1.0 338:1.0 399:1.0 
0.0 0.16396231539512274 0.0 31:1.0 109:1.0 212:1.0 304:1.0 352:1.0 399:1.0 402:1.0 
1.0 0.0 0.36782820028158514 30:1.0 31:1.0 55:1.0 152:1.0 269:1.0 382:1.0 399:1.0 419:1.0 
1.0 0.0 0.0745507426945702 55:1.0 130:1.0 152:1.0 399:1.0 
0.0 0.011179800353823034 0.0 102:1.0 279:1.0 306:1.0 370:1.0 385:1.0 399:1.0 
0.7423503259154023 0.0 0.0 10:1.0 24:1.0 41:1.0 104:1.0 152:1.0 194:1.0 382:1.0 399:1.0 
1.0 0.0 0.0 152:1.0 183:1.0 212:1.0 382:1.0 399:1.0 
0.0 0.0 0.14625664332202 109:1.0 255:1.0 399:1.0 
1.0 0.0 0.0 97:1.0 152:1.0 212:1.0 255:1.0 399:1.0 413:1.0 
1.0 0.0 0.0 12:1.0 152:1.0 305:1.0 398:1.0 399:1.0 
1.0 0.0 0.0 208:1.0 382:1.0 399:1.0 
1.0 0.0 0.0 85:1.0 147:1.0 152:1.0 254:1.0 255:1.0 399:1.0 413:1.0 428:1.0 
0.0 0.023947014786805335 0.3895085467393446 8:1.0 31:1.0 128:1.0 147:1.0 165:2.0 399:1.0 
0.0 0.47841170307772485 0.0 31:1.0 247:1.0 281:1.0 397:1.0 399:1.0 
1.0 0.0 0.0 152:1.0 279:2.0 311:1.0 382:1.0 384:1.0 399:1.0 
1.0 0.0 0.0 15:1.0 60:1.0 113:1.0 116:1.0 183:1.0 226:1.0 262:1.0 382:2.0 399:1.0 424:1.0 
0.5130516261589915 0.0 0.0 153:1.0 212:1.0 390:1.0 399:1.0 
1.0 0.0 0.0 31:1.0 152:1.0 212:1.0 268:1.0 304:1.0 347:1.0 399:1.0 
0.0 0.0036732775012756126 0.0 112:1.0 247:1.0 352:1.0 399:1.0 419:1.0 
0.0 0.0 0.06833144401473638 140:1.0 254:1.0 323:1.0 343:1.0 362:1.0 399:1.0 422:1.0 
0.9443386236986934 0.0 0.0 45:1.0 119:1.0 303:1.0 399:1.0 411:1.0 430:1.0 
1.0 0.0 0.0 85:1.0 102:1.0 130:1.0 152:1.0 153:1.0 222:1.0 247:1.0 305:1.0 323:1.0 365:1.0 399:1.0 413:1.0 
0.0 0.7688867148566229 0.0 83:1.0 130:1.0 209:1.0 264:1.0 399:1.0 
1.0 0.7346374874531028 0.0 21:1.0 113:1.0 239:1.0 253:1.0 254:1.0 323:1.0 365:1.0 382:1.0 399:1.0 424:1.0 
1.0 0.0 0.0 153:1.0 156:1.0 208:1.0 254:1.0 399:1.0 
1.0 0.0 0.0 137:1.0 152:1.0 153:1.0 194:1.0 279:1.0 370:1.0 382:1.0 399:1.0 
0.0 0.0 0.014900114459885086 6:1.0 89:1.0 153:1.0 318:1.0 399:1.0 
0.2913440565854208 0.0 0.0 142:1.0 146:1.0 153:1.0 162:1.0 212:1.0 282:1.0 322:1.0 375:1.0 399:1.0 419:1.0 
0.2513341537687781 0.0 0.0 17:1.0 42:1.0 130:1.0 152:1.0 202:1.0 212:1.0 330:1.0 399:3.0 
1.0 0.0 0.0 39:1.0 152:2.0 210:1.0 337:1.0 382:1.0 387:1.0 399:1.0 
1.0 0.0 0.4121360608241836 152:1.0 161:1.0 399:1.0 
0.0 0.005231867351470929 0.0 132:1.0 161:2.0 252:1.0 263:1.0 399:1.0 
0.4802974924198821 0.0 0.0 41:1.0 135:1.0 324:1.0 394:1.0 399:1.0 
0.0 0.027711021745784936 0.0 153:1.0 209:1.0 212:1.0 306:1.0 357:1.0 394:1.0 397:1.0 399:1.0 
0.021925556572564862 0.0 0.0 46:1.0 66:1.0 179:1.0 260:1.0 321:1.0 399:1.0 
0.30297213583516414 0.0 0.0 172:1.0 247:1.0 399:1.0 
0.47166762109398047 0.0 0.0 44:1.0 174:2.0 186:1.0 330:1.0 367:1.0 398:1.0 399:2.0 432:1.0 
1.0 0.0 0.0 152:1.0 194:1.0 237:1.0 363:1.0 366:2.0 399:1.0 
1.0 0.0 0.125836585960455 32:1.0 152:1.0 171:1.0 183:1.0 226:1.0 365:2.0 399:1.0 419:1.0 
1.0 0.41592385444537866 0.0 6:1.0 8:1.0 130:1.0 153:1.0 168:1.0 183:1.0 370:1.0 399:1.0 
1.0 0.04019184061467878 0.0 151:1.0 255:1.0 399:1.0 401:1.0 
0.0 1.0 0.0 235:1.0 309:1.0 399:1.0 
0.74144189421887 0.0 0.0 226:1.0 282:1.0 358:1.0 399:1.0 
0.22737740331619882 0.0 0.0 146:1.0 183:1.0 262:1.0 343:1.0 399:1.0 
1.0 0.0 0.0 61:1.0 183:1.0 208:1.0 399:1.0 
0.0 0.5147634626327064 0.0 130:1.0 161:1.0 183:1.0 226:1.0 365:1.0 385:1.0 399:1.0 
1.0 0.0 0.0 2:1.0 140:1.0 152:1.0 323:1.0 399:2.0 
0.0 0.0 0.025670794548227432 80:1.0 220:1.0 255:1.0 262:1.0 399:1.0 
0.0 1.0 0.0 41:1.0 53:1.0 130:1.0 161:1.0 183:1.0 220:1.0 235:1.0 287:1.0 399:1.0 
0.0 0.006730417036370645 0.0 90:1.0 330:1.0 361:1.0 396:1.0 399:1.0 
1.0 0.0 0.0 8:1.0 10:1.0 29:1.0 147:1.0 208:1.0 399:1.0 
1.0 0.0 0.0 152:1.0 183:1.0 212:1.0 363:1.0 382:1.0 399:1.0 
1.0 0.0 0.0 63:1.0 152:1.0 212:1.0 294:1.0 398:1.0 399:1.0 
1.0 0.2632928081337868 0.0 124:1.0 183:1.0 208:1.0 212:1.0 252:1.0 254:1.0 282:1.0 382:1.0 399:1.0 
0.0 0.6726742217891623 0.0 12:1.0 77:1.0 178:1.0 255:1.0 266:1.0 323:1.0 343:1.0 399:1.0 
0.0 0.3740911152256925 0.0 162:1.0 247:1.0 305:1.0 323:1.0 367:1.0 382:1.0 399:1.0 
1.0 0.07824384335894509 0.0 68:1.0 135:1.0 153:1.0 208:1.0 212:1.0 255:1.0 282:1.0 343:1.0 376:1.0 399:1.0 
1.0 0.0 0.4665081358187338 152:1.0 343:1.0 399:1.0 
0.6633839710133886 0.3407081081703051 0.0 96:1.0 130:1.0 399:1.0 
0.010780056270766782 0.0 0.0 81:1.0 158:1.0 184:1.0 366:1.0 381:1.0 382:1.0 398:1.0 399:1.0 424:1.0 
0.0 0.6399744193403294 0.0 42:1.0 51:1.0 63:1.0 209:1.0 399:1.0 
0.18893334556405164 0.0 0.2656607904970341 63:1.0 183:1.0 212:1.0 262:1.0 319:1.0 323:1.0 373:3.0 399:1.0 408:1.0 
0.0 0.002564436943885365 0.0 50:1.0 63:1.0 113:1.0 131:1.0 146:1.0 266:1.0 300:1.0 399:1.0 413:1.0 422:1.0 
0.0 0.0 0.02923565239939966 2:1.0 216:1.0 289:2.0 317:1.0 399:1.0 
0.27267169826920956 0.0 0.8738507716367888 134:1.0 161:1.0 395:1.0 399:1.0 
1.0 0.0 0.0 8:1.0 26:1.0 89:1.0 130:1.0 152:1.0 255:1.0 399:1.0 
1.0 0.0 0.0 21:1.0 40:1.0 208:1.0 355:1.0 399:1.0 
0.0 0.6162127471517514 0.0 224:1.0 255:1.0 399:1.0 
1.0 0.0 0.0 130:1.0 134:1.0 153:1.0 183:2.0 208:1.0 226:1.0 317:2.0 399:1.0 
1.0 0.0 0.0 8:2.0 160:2.0 196:1.0 208:1.0 309:1.0 317:1.0 399:1.0 
0.5852131863745469 0.0 0.0 44:1.0 119:1.0 317:1.0 399:1.0 
0.0 1.0 0.0 8:1.0 130:1.0 332:1.0 399:1.0 
0.0 0.12665936330986893 0.0 41:2.0 153:1.0 191:1.0 314:1.0 343:1.0 369:1.0 399:1.0 
0.0425532318651158 0.0 0.0 196:1.0 212:1.0 273:1.0 317:2.0 343:1.0 399:1.0 
0.0 0.0 0.04651490877018859 255:2.0 269:1.0 294:1.0 317:1.0 340:1.0 399:1.0 
0.0 0.480552126786831 0.0 16:1.0 41:1.0 153:1.0 317:1.0 399:1.0 
0.40419432563635455 0.0 0.0 159:1.0 317:1.0 343:1.0 399:1.0 
0.6214220318198098 0.0 0.06375968188674025 74:1.0 175:1.0 362:1.0 399:1.0 
1.0 0.0 0.0 50:1.0 59:1.0 130:1.0 143:1.0 166:1.0 175:1.0 208:1.0 266:1.0 294:1.0 382:1.0 399:1.0 
0.09040215637647243 0.0 0.0 113:1.0 197:1.0 323:1.0 399:1.0 
0.5153271488935952 0.0 0.0 16:1.0 21:1.0 325:1.0 399:1.0 
0.0 0.5525089993601697 0.0 97:1.0 110:2.0 130:2.0 212:1.0 307:1.0 399:1.0 
1.0 0.0 0.0 152:1.0 317:1.0 399:1.0 
1.0 1.0 0.0 2:1.0 54:1.0 152:1.0 317:1.0 361:1.0 399:1.0 
1.0 0.0 0.0 152:1.0 212:1.0 317:1.0 399:1.0 
1.0 0.0 0.4811514601503393 55:1.0 104:1.0 152:1.0 209:1.0 288:1.0 317:1.0 330:1.0 343:1.0 365:1.0 399:1.0 
1.0 0.0 0.7496617179515843 21:1.0 152:1.0 399:1.0 
0.0 0.0010641014109502639 0.0 147:1.0 252:1.0 274:1.0 399:1.0 
0.0 0.70747285972268 0.0 63:1.0 130:1.0 279:1.0 366:1.0 399:1.0 405:1.0 407:1.0 
1.0 0.0 0.0 21:1.0 152:1.0 266:2.0 270:1.0 317:1.0 364:1.0 397:1.0 399:1.0 424:1.0 
0.5707136218016745 0.0 0.0 25:1.0 161:2.0 183:1.0 226:1.0 399:1.0 419:1.0 426:1.0 
1.0 0.0 0.0 2:1.0 127:1.0 208:1.0 255:1.0 381:1.0 382:1.0 399:1.0 
1.0 0.0 0.0 152:1.0 366:1.0 399:1.0 426:1.0 
0.0 0.5778015807554521 0.0 130:1.0 168:1.0 183:1.0 317:2.0 323:1.0 399:1.0 
0.0 0.01728796578474527 0.034503573852590674 6:1.0 31:1.0 55:1.0 81:2.0 130:1.0 226:1.0 344:1.0 399:1.0 
0.0 0.35347676498268144 0.0 15:1.0 110:2.0 130:1.0 143:1.0 304:1.0 317:1.0 365:1.0 399:1.0 412:1.0 
0.0 0.04858280290575457 0.00776376567077902 135:1.0 317:1.0 343:1.0 399:1.0 425:1.0 
0.0 0.025202938541499693 0.013343797128825793 28:1.0 317:1.0 343:1.0 399:1.0 400:1.0 
0.13068215707724082 0.0 0.0 53:1.0 63:1.0 126:1.0 310:1.0 387:1.0 394:1.0 398:1.0 399:1.0 
1.0 0.0 0.24433121619833228 152:1.0 212:1.0 257:1.0 382:1.0 399:1.0 
1.0 0.0 0.0 21:1.0 152:1.0 222:1.0 365:1.0 399:1.0 
1.0 0.0 0.0 8:1.0 74:1.0 152:1.0 166:1.0 371:1.0 382:1.0 399:1.0 419:2.0 
1.0 0.0 0.0 62:1.0 63:1.0 152:1.0 166:1.0 175:1.0 279:1.0 323:1.0 399:1.0 
0.0 0.3063215710489102 0.0 16:1.0 41:1.0 330:1.0 384:3.0 399:1.0 
0.0 0.3744483047710057 0.0 281:2.0 304:1.0 365:1.0 399:1.0 
0.0 0.029830717015328422 0.0 63:1.0 147:1.0 161:1.0 183:1.0 220:1.0 237:1.0 264:1.0 266:1.0 323:2.0 338:1.0 397:2.0 399:1.0 427:1.0 
1.0 0.0 0.0 81:1.0 130:1.0 161:1.0 175:1.0 183:1.0 208:1.0 254:1.0 382:2.0 399:1.0 
0.09255583766743619 0.21920433169776132 0.0 136:1.0 199:1.0 266:1.0 399:1.0 
0.0 0.03446819823269382 0.0 63:1.0 140:1.0 194:1.0 352:1.0 399:1.0 
1.0 0.0 0.4536563775387963 21:1.0 138:1.0 208:1.0 352:1.0 399:1.0 
0.0 0.0 0.040118050761598974 9:2.0 14:1.0 33:1.0 40:1.0 216:1.0 305:1.0 363:1.0 373:1.0 399:1.0 
1.0 0.0 1.0 152:1.0 194:1.0 399:1.0 
1.0 0.0 0.0 152:1.0 183:1.0 194:1.0 274:1.0 309:1.0 399:1.0 
1.0 0.0 0.0 31:1.0 147:1.0 208:2.0 315:1.0 399:2.0 
0.0 0.7865742754877957 0.0 53:1.0 232:1.0 283:1.0 399:1.0 
1.0 0.0 0.0 60:1.0 143:1.0 175:1.0 183:1.0 208:1.0 324:1.0 326:1.0 399:1.0 
0.0 1.0 0.28412975311368716 26:1.0 89:1.0 209:1.0 226:1.0 266:1.0 303:1.0 337:1.0 
0.0 0.7288689845384985 0.0 8:1.0 209:1.0 352:1.0 399:1.0 
1.0 0.0 0.0 2:1.0 186:1.0 399:1.0 413:1.0 
1.0 0.0 0.0 152:1.0 187:1.0 399:1.0 
1.0 0.0 0.0 183:1.0 208:1.0 216:1.0 399:1.0 
0.0 0.0 0.04401292881964409 138:1.0 142:1.0 399:1.0 
0.0 0.0 0.5457406979672796 110:2.0 255:1.0 399:1.0 
0.0 0.0055466430883270145 0.0 104:1.0 153:1.0 383:1.0 399:1.0 
0.0 0.0 0.06840414126270088 6:1.0 32:1.0 149:1.0 255:1.0 292:1.0 352:1.0 399:1.0 
1.0 0.0 0.0 136:1.0 221:1.0 399:1.0 
1.0 0.0 0.0 161:1.0 208:1.0 216:1.0 376:1.0 399:1.0 
0.0 0.42389515140564143 0.0 78:1.0 124:1.0 266:1.0 399:1.0 
0.33279355665560995 0.015753409222301718 0.34735924865295603 41:1.0 399:1.0 400:1.0 
1.0 0.0 0.0 130:1.0 152:1.0 183:1.0 337:1.0 399:1.0 422:1.0 
0.0 0.003330235314844227 0.0 6:2.0 247:1.0 278:1.0 310:1.0 355:1.0 376:1.0 399:1.0 
0.0 0.0 0.7150736598756557 31:1.0 368:1.0 399:1.0 
1.0 0.0 0.6795055439259484 130:1.0 208:1.0 323:1.0 359:1.0 399:1.0 
1.0 0.0 0.0 208:1.0 324:1.0 397:1.0 399:1.0 
1.0 0.0 0.0 152:1.0 399:1.0 
0.8851471460367873 0.0 0.0 36:1.0 152:1.0 343:1.0 397:1.0 399:1.0 
1.0 0.0 0.0 152:1.0 399:1.0 
1.0 0.0 0.0 152:1.0 399:1.0 
1.0 0.0 0.05542165678447368 130:1.0 134:1.0 149:1.0 152:1.0 185:1.0 343:1.0 399:1.0 
1.0 0.0 3.8163916471489756E-17 21:1.0 152:1.0 162:1.0 399:1.0 
0.011102186575021798 0.0 0.0 69:1.0 343:1.0 399:1.0 
1.0 0.0 0.0 63:1.0 147:1.0 208:1.0 222:1.0 254:1.0 367:1.0 382:2.0 399:1.0 
0.0 0.0 0.012607747518866886 21:1.0 38:1.0 47:1.0 373:1.0 399:1.0 412:1.0 
1.0 0.0 0.009631306369812437 31:1.0 67:1.0 152:1.0 399:1.0 
1.0 0.0885019778429421 0.0 152:1.0 222:1.0 245:1.0 323:1.0 399:1.0 419:2.0 
0.0 0.8922791100760536 0.0 161:4.0 399:1.0 
0.0 0.6453109595276817 0.0029874864446678144 31:1.0 96:1.0 130:2.0 138:1.0 317:2.0 373:1.0 399:1.0 
0.0 0.3628405884366298 0.0 130:1.0 373:1.0 383:1.0 399:1.0 413:1.0 
0.0 0.8169482271054275 0.0 2:1.0 8:1.0 130:1.0 147:1.0 209:1.0 397:1.0 399:1.0 
0.0 1.0 0.0 130:2.0 212:1.0 235:1.0 399:1.0 
0.0 0.0010763740286727096 0.0 41:1.0 296:1.0 385:1.0 399:1.0 
0.0 1.0 0.0 96:1.0 385:1.0 399:1.0 
1.0 0.0 0.0 152:1.0 212:1.0 281:1.0 305:1.0 381:1.0 382:1.0 399:1.0 
1.0 0.0 0.8627743598696961 31:1.0 130:1.0 152:1.0 399:1.0 
0.0 4.1470832030156935E-4 0.0 147:1.0 206:2.0 249:1.0 305:1.0 361:1.0 382:1.0 397:1.0 399:1.0 424:1.0 
0.0 0.0 0.05944780265742623 31:1.0 32:1.0 60:1.0 109:1.0 130:1.0 138:1.0 212:1.0 279:1.0 343:1.0 399:1.0 
0.0 0.17225126659049766 0.0 41:2.0 130:3.0 178:1.0 255:1.0 305:1.0 367:1.0 382:1.0 399:1.0 
1.0 0.0 0.0 152:1.0 178:1.0 399:1.0 413:1.0 
0.0 0.23488919598195354 0.0 92:1.0 134:2.0 323:1.0 330:1.0 343:1.0 399:1.0 412:1.0 422:1.0 
0.3460272436163162 0.0 0.0 35:1.0 178:1.0 183:1.0 262:1.0 323:1.0 399:1.0 407:1.0 
1.0 0.0 0.09712728576166954 132:1.0 138:1.0 152:1.0 193:1.0 194:1.0 399:1.0 
0.13986318313347076 0.0 0.0 175:1.0 399:1.0 
0.6713828953847958 0.0 0.0 95:1.0 197:1.0 323:1.0 399:1.0 403:1.0 
0.0 0.016316522250308364 0.0 8:1.0 41:1.0 65:1.0 252:1.0 281:1.0 317:1.0 399:1.0 
0.0 3.272241390141616E-4 0.0 135:2.0 137:1.0 317:1.0 399:1.0 
0.0 0.02164020089183059 0.0 42:1.0 367:1.0 399:1.0 
1.0 0.684996527084314 1.0 152:1.0 256:1.0 258:1.0 
0.0 0.3543959880765491 0.0 8:1.0 62:2.0 130:1.0 153:2.0 310:1.0 399:1.0 
0.25760434708719776 0.0 0.0 110:2.0 130:1.0 210:1.0 287:1.0 310:1.0 399:1.0 413:1.0 
1.0 0.0 0.0 104:1.0 130:1.0 152:1.0 399:1.0 
1.0 0.0031663543149303927 0.0 116:1.0 153:1.0 300:1.0 343:1.0 394:1.0 399:1.0 413:1.0 
0.0 0.010473750640706237 0.0 41:1.0 110:2.0 130:1.0 210:1.0 360:1.0 399:1.0 409:1.0 422:1.0 
1.0 0.0 0.0 6:1.0 8:1.0 47:1.0 122:1.0 152:1.0 153:1.0 343:1.0 382:1.0 399:1.0 413:1.0 
0.0 0.9942805935267643 0.0 15:1.0 130:1.0 132:1.0 266:1.0 352:1.0 399:1.0 412:1.0 413:1.0 
0.9265627696727932 0.0 0.0 86:1.0 122:1.0 138:1.0 152:1.0 167:1.0 282:1.0 284:1.0 317:1.0 338:1.0 356:1.0 374:1.0 382:1.0 392:1.0 399:1.0 
0.23056531938460356 0.0 0.0 2:1.0 113:1.0 142:1.0 237:1.0 367:1.0 382:1.0 399:1.0 413:1.0 430:1.0 
0.0 1.0 0.0 51:1.0 76:1.0 210:1.0 235:1.0 303:1.0 310:1.0 399:1.0 
0.0 0.1937139854849559 0.0 2:1.0 110:2.0 147:1.0 399:1.0 
1.0 0.0 0.048882286444093204 31:1.0 140:1.0 152:1.0 161:1.0 348:1.0 399:1.0 
0.0 1.0 0.0 24:1.0 108:1.0 212:1.0 235:1.0 330:1.0 
0.0 0.14131202866436263 0.0 31:1.0 161:1.0 237:1.0 254:1.0 343:1.0 399:1.0 424:1.0 
0.0 0.04280987077309775 0.0 38:1.0 139:1.0 153:1.0 306:1.0 352:1.0 399:1.0 432:1.0 
0.6742652821331981 0.0 0.0 2:1.0 63:1.0 233:1.0 343:1.0 399:1.0 
0.0 0.012000307405047013 0.0 8:1.0 63:1.0 140:1.0 194:1.0 210:1.0 226:1.0 287:1.0 317:2.0 338:1.0 399:1.0 
1.0 0.0 0.0 152:1.0 153:1.0 365:1.0 399:1.0 
0.6176326472672571 0.0 0.0 47:1.0 130:1.0 152:1.0 222:1.0 303:1.0 317:2.0 338:1.0 363:1.0 399:1.0 
0.0 1.0 0.0 130:1.0 136:1.0 143:1.0 179:1.0 235:1.0 237:1.0 281:1.0 326:1.0 368:1.0 397:1.0 399:1.0 
0.0 0.9877806834447681 1.0 24:1.0 130:1.0 
1.0 0.0 0.0 64:1.0 172:1.0 208:1.0 309:1.0 399:1.0 
1.0 0.0026593532723537022 0.01118406240876456 81:1.0 138:1.0 152:1.0 212:1.0 381:1.0 383:1.0 399:1.0 403:1.0 
1.0 0.0 0.0 42:1.0 119:1.0 152:1.0 183:1.0 208:1.0 269:1.0 348:1.0 359:1.0 367:1.0 382:1.0 399:1.0 422:1.0 
0.0 1.0 0.0 130:1.0 235:1.0 323:1.0 399:1.0 
0.0 0.0 0.023385963368834913 130:1.0 161:1.0 282:1.0 289:1.0 399:1.0 
1.0 0.0 0.0 104:1.0 130:1.0 152:1.0 399:1.0 
0.33544298206758566 0.45014781777229856 0.0 10:1.0 31:1.0 134:1.0 152:1.0 206:1.0 226:1.0 255:1.0 281:1.0 399:1.0 416:1.0 
1.0 0.0 0.0 8:1.0 152:1.0 329:1.0 343:1.0 399:1.0 
1.0 0.0 0.0 25:1.0 31:1.0 77:1.0 152:1.0 175:1.0 264:1.0 343:1.0 399:1.0 412:1.0 
0.0 1.0 0.0 235:1.0 399:1.0 403:1.0 
1.0 0.0 0.0 152:1.0 329:1.0 343:1.0 399:1.0 413:1.0 
0.0 0.0028593932960080622 0.0 31:1.0 41:1.0 81:1.0 130:2.0 158:1.0 186:1.0 329:1.0 343:1.0 399:1.0 413:1.0 
0.0 0.0 0.14427494064866142 119:1.0 194:1.0 196:1.0 288:1.0 329:1.0 343:1.0 399:1.0 
0.0 0.380370004805553 0.0 147:1.0 183:1.0 245:1.0 317:1.0 343:1.0 374:1.0 399:1.0 412:1.0 
0.0 0.166680217898443 0.13706434793724442 161:1.0 288:1.0 307:1.0 343:1.0 376:1.0 399:1.0 
0.0 0.0 0.251542698224181 41:1.0 63:2.0 128:1.0 130:1.0 134:1.0 137:1.0 138:1.0 212:2.0 343:1.0 399:1.0 
0.15083380698643817 0.0 0.0 69:1.0 343:1.0 399:1.0 
1.0 0.0 0.0 110:2.0 130:1.0 197:1.0 208:1.0 247:1.0 255:1.0 301:1.0 343:1.0 374:1.0 399:1.0 416:1.0 419:2.0 
1.0 0.0 0.0 152:1.0 217:1.0 247:1.0 343:1.0 399:1.0 428:1.0 
0.779271560770199 0.0 0.04561447064294688 20:1.0 323:1.0 343:1.0 399:1.0 400:1.0 
1.0 0.0 1.0 152:1.0 343:1.0 399:1.0 
1.0 0.0 1.0 152:1.0 323:1.0 343:1.0 399:1.0 
0.0 1.0 0.0 63:2.0 113:1.0 183:1.0 300:2.0 343:1.0 399:1.0 413:2.0 
1.0 0.0 0.0 51:1.0 152:1.0 242:1.0 305:1.0 343:1.0 382:1.0 387:1.0 399:1.0 419:1.0 
0.0 0.9862257766867443 0.0 16:1.0 21:1.0 41:1.0 140:1.0 166:1.0 231:1.0 285:1.0 343:1.0 382:1.0 399:1.0 413:1.0 
0.0 1.0 0.0 177:1.0 235:1.0 399:1.0 
0.3709045283668139 0.0 0.0 55:1.0 75:1.0 110:2.0 140:1.0 152:1.0 222:1.0 369:1.0 399:1.0 
0.0 0.27802846069666415 0.0 8:2.0 10:1.0 81:1.0 110:2.0 130:1.0 181:1.0 399:1.0 413:1.0 
1.0 0.0 0.0 175:1.0 399:1.0 
0.0 0.007638221121981092 0.0 22:1.0 130:1.0 146:1.0 160:1.0 281:1.0 374:1.0 385:1.0 399:1.0 408:1.0 
1.0 0.0 0.0 110:2.0 119:1.0 152:1.0 212:1.0 343:1.0 366:1.0 398:1.0 399:1.0 422:1.0 
1.0 0.0 0.0 2:1.0 28:1.0 130:1.0 183:1.0 208:1.0 254:1.0 255:1.0 262:1.0 294:1.0 343:1.0 344:1.0 399:1.0 
0.4339201496956333 0.0 0.0 8:1.0 124:1.0 279:1.0 317:1.0 399:1.0 
1.0 0.0 0.0 175:1.0 208:1.0 399:2.0 
0.23105685947131036 0.26183220977770477 0.0 152:1.0 178:1.0 222:1.0 242:1.0 317:1.0 330:1.0 382:1.0 399:1.0 
0.0 0.0027969709780692573 0.0 3:1.0 41:1.0 63:1.0 219:1.0 317:1.0 330:1.0 399:1.0 
1.0 0.0 0.0 21:1.0 117:1.0 212:1.0 287:1.0 399:1.0 413:1.0 
0.0 0.07364606314176161 0.0 97:1.0 130:1.0 196:1.0 266:1.0 338:1.0 343:1.0 399:1.0 413:1.0 
1.0 0.14860942108307332 0.0 9:1.0 130:2.0 143:1.0 208:1.0 264:1.0 343:1.0 373:1.0 399:1.0 
0.0 0.0 0.3303741136988339 117:1.0 255:1.0 367:1.0 371:1.0 399:1.0 
1.0 0.0 0.0 208:1.0 282:1.0 317:1.0 399:1.0 
1.0 0.0 0.0 208:1.0 282:1.0 317:1.0 399:1.0 
0.0 0.2972199051139635 0.0 2:1.0 130:2.0 234:1.0 399:1.0 424:1.0 435:1.0 
0.49047139803711903 0.0 0.0 210:1.0 343:1.0 399:1.0 
1.0 0.0 0.0 152:1.0 153:2.0 226:1.0 365:1.0 370:2.0 399:1.0 
0.09042822028204506 0.0 0.0 16:1.0 50:1.0 115:1.0 197:1.0 254:1.0 323:1.0 399:1.0 
1.0 0.0 0.0 152:1.0 153:1.0 178:1.0 194:2.0 370:1.0 399:1.0 421:1.0 
1.0 0.0 0.0 8:1.0 77:1.0 152:1.0 212:1.0 374:1.0 399:1.0 
0.47958449995592556 0.0 0.0 9:2.0 212:1.0 304:1.0 399:1.0 402:1.0 
0.09497385570019663 0.0 0.0 63:1.0 358:1.0 399:1.0 
0.0 0.0 0.039242937852334556 4:1.0 41:1.0 63:1.0 303:1.0 343:1.0 399:1.0 423:1.0 
0.0 0.031318348476978154 0.0 6:1.0 8:1.0 31:1.0 344:1.0 382:1.0 399:1.0 
1.0 0.0 0.0 63:1.0 152:1.0 230:1.0 305:1.0 382:1.0 399:1.0 
0.0 1.0 0.0 63:1.0 212:1.0 224:1.0 235:1.0 247:1.0 362:1.0 398:1.0 399:1.0 
1.0 0.0 0.0 152:1.0 399:1.0 
0.0 1.0 0.0 102:1.0 194:1.0 235:1.0 239:1.0 317:1.0 399:1.0 
0.9611336726957243 0.0 0.0 42:1.0 147:1.0 152:1.0 166:1.0 244:1.0 247:1.0 294:1.0 399:1.0 
0.0 0.24267808866504223 0.0 2:1.0 77:1.0 222:1.0 323:1.0 399:1.0 412:1.0 
0.5845650818212114 0.0 0.0 2:1.0 16:1.0 63:1.0 95:1.0 138:1.0 247:1.0 323:1.0 382:1.0 399:1.0 
0.0 0.0 0.2653945306010313 97:1.0 128:1.0 138:1.0 194:1.0 333:1.0 399:1.0 
0.0 0.0 0.19204401834460463 30:1.0 38:1.0 110:1.0 140:1.0 366:1.0 399:1.0 
0.0 1.0 0.0 153:1.0 235:1.0 399:1.0 
0.0 0.0 0.05093507703614644 212:2.0 226:1.0 343:1.0 399:1.0 424:3.0 
0.08759565148493922 0.0 0.0 80:2.0 152:1.0 279:1.0 305:1.0 382:1.0 384:1.0 399:1.0 
0.07053110973863119 0.0 0.0 13:1.0 30:1.0 138:1.0 152:1.0 371:1.0 399:1.0 414:2.0 
0.0 0.0060605839657470705 0.0 2:1.0 31:1.0 149:1.0 162:1.0 222:1.0 245:1.0 399:1.0 422:1.0 
0.45389021046230726 0.0 0.0 17:2.0 50:1.0 130:1.0 153:1.0 159:1.0 166:1.0 237:1.0 271:1.0 370:1.0 399:1.0 
1.0 0.0 0.0 83:1.0 208:1.0 264:1.0 399:1.0 
0.7142006226516407 0.0 0.14560416832913942 6:1.0 83:1.0 128:1.0 212:1.0 247:1.0 269:1.0 367:1.0 397:1.0 399:1.0 
0.0 0.32000778394494567 0.0 15:1.0 323:1.0 360:1.0 399:1.0 
1.0 0.0 0.0 76:1.0 399:1.0 
0.0 0.7786569239094201 0.0 8:2.0 110:2.0 130:1.0 166:2.0 382:1.0 399:1.0 420:1.0 
1.0 0.0076593087842298565 0.047354702002178437 109:1.0 126:1.0 152:1.0 208:1.0 281:1.0 283:1.0 299:1.0 317:2.0 399:1.0 
1.0 0.0 0.0 47:1.0 108:1.0 109:1.0 130:1.0 194:1.0 208:1.0 262:1.0 305:2.0 323:1.0 330:1.0 382:1.0 399:1.0 
0.0 0.0026824012141766556 0.0 15:1.0 81:1.0 100:1.0 247:1.0 317:1.0 399:1.0 
1.0 0.0 0.0 16:1.0 24:1.0 29:1.0 152:1.0 197:1.0 399:1.0 
1.0 0.0 0.0 8:2.0 110:2.0 152:1.0 220:1.0 317:1.0 399:1.0 412:1.0 
1.0 0.0 0.0 175:1.0 399:1.0 
1.0 0.0 0.0 152:1.0 178:1.0 245:1.0 304:1.0 365:1.0 399:1.0 
0.0 1.0 0.0 15:1.0 63:1.0 108:1.0 130:1.0 235:1.0 304:1.0 330:1.0 399:1.0 
1.0 0.0 0.0 109:1.0 183:1.0 208:1.0 382:1.0 399:1.0 
1.0 0.0 0.0 143:2.0 152:1.0 210:1.0 255:1.0 304:1.0 363:1.0 366:1.0 399:1.0 
0.0 0.0 0.22082756227304612 71:1.0 217:1.0 233:1.0 399:1.0 
0.6452681992580666 0.0 0.0 75:1.0 382:1.0 395:1.0 399:1.0 
0.0 0.041019046355949995 0.0 214:1.0 399:1.0 
0.0 0.0 0.04222056112642529 196:1.0 212:1.0 217:1.0 323:1.0 399:1.0 417:1.0 
1.0 0.0 0.0 8:1.0 178:1.0 262:1.0 399:1.0 
0.015496236545126198 0.0 0.0 63:1.0 181:1.0 196:1.0 269:1.0 323:1.0 374:1.0 399:1.0 
1.0 0.0 0.0 2:1.0 50:1.0 152:1.0 160:1.0 217:1.0 323:1.0 399:1.0 
0.6749752795076593 0.0 0.0 2:1.0 30:1.0 63:1.0 152:1.0 175:1.0 225:1.0 266:1.0 271:1.0 305:1.0 343:1.0 399:1.0 
0.0 0.04242207884495493 0.0 8:1.0 210:1.0 255:1.0 269:1.0 365:1.0 399:1.0 
1.0 0.9923397569720019 0.0 8:1.0 36:1.0 122:1.0 152:1.0 254:1.0 323:1.0 399:1.0 
0.3292041635848232 0.0 0.0 63:1.0 130:1.0 233:1.0 352:1.0 399:1.0 426:1.0 
0.3369875312192665 0.0 0.0 45:1.0 153:1.0 295:1.0 399:1.0 
0.22943013773548698 0.0 0.08019979131354169 6:1.0 203:1.0 254:1.0 263:1.0 394:1.0 399:1.0 
0.0 0.6303179344740393 0.0 2:1.0 155:1.0 166:1.0 399:1.0 
1.0 0.0 0.0 152:1.0 167:1.0 373:1.0 382:1.0 399:1.0 422:2.0 
1.0 0.0 0.0 130:1.0 152:1.0 399:1.0 
0.0 0.01028103311895507 0.0 130:1.0 153:1.0 217:1.0 292:1.0 365:1.0 397:1.0 399:1.0 
1.0 0.0 0.0 2:1.0 147:1.0 152:1.0 399:1.0 435:1.0 
0.0 0.021029966892987986 0.0 41:1.0 125:1.0 130:2.0 245:2.0 399:1.0 
0.0 0.6340377521152314 0.0 41:1.0 212:1.0 330:1.0 399:1.0 
1.0 0.0 0.0 130:1.0 152:1.0 279:1.0 317:1.0 364:1.0 374:1.0 397:1.0 399:1.0 424:1.0 
1.0 0.0 0.0 2:1.0 152:1.0 304:1.0 367:1.0 399:1.0 428:1.0 
1.0 0.0 0.0 130:1.0 147:1.0 208:1.0 282:1.0 399:1.0 
0.0 0.07201027540158347 0.0 41:1.0 77:1.0 343:1.0 380:1.0 399:1.0 
0.0 0.019007069188055028 0.003945582914118024 73:1.0 114:1.0 183:1.0 306:1.0 367:1.0 399:1.0 419:1.0 424:1.0 
1.0 0.0 0.0 8:1.0 112:1.0 152:1.0 214:1.0 382:2.0 399:1.0 
0.0 0.852159539497263 0.0 8:1.0 130:1.0 146:1.0 255:1.0 399:1.0 
1.0 0.0 0.0 63:1.0 282:1.0 358:1.0 399:1.0 
0.6200740546527507 0.0 0.0 212:1.0 282:2.0 375:1.0 399:1.0 
1.0 0.0 0.0 66:1.0 210:1.0 399:1.0 
1.0 0.40444403435336884 0.0 130:1.0 153:1.0 208:1.0 242:1.0 317:1.0 370:1.0 399:1.0 
1.0 0.0 0.0 41:1.0 152:1.0 161:1.0 178:1.0 212:1.0 255:1.0 399:1.0 
0.0 0.4963948649780837 0.0 21:1.0 41:2.0 130:1.0 209:1.0 234:1.0 382:1.0 385:1.0 394:1.0 399:1.0 427:1.0 
1.0 0.0 0.0 19:1.0 152:1.0 185:1.0 255:1.0 399:1.0 
1.0 0.0 0.0 4:1.0 152:1.0 194:1.0 343:1.0 399:1.0 
1.0 0.0 0.333642233337407 152:1.0 209:1.0 399:1.0 424:1.0 
0.0 0.9525873719449653 0.0 370:1.0 399:1.0 424:1.0 433:1.0 
1.0 0.0 0.5746563579268271 81:1.0 152:2.0 163:1.0 399:1.0 424:1.0 
0.5359815266959803 0.0 0.0 158:1.0 399:1.0 424:1.0 
1.0 0.0 0.0 104:1.0 147:1.0 152:1.0 343:1.0 382:1.0 399:1.0 
1.0 0.0 0.0 152:1.0 399:1.0 
1.0 0.0 0.0 6:1.0 8:1.0 152:1.0 374:1.0 399:1.0 413:1.0 
1.0 0.0 0.0 152:1.0 399:1.0 
1.0 0.0 0.0 8:1.0 31:1.0 130:1.0 152:1.0 343:1.0 376:1.0 382:1.0 399:1.0 
1.0 0.0 0.1562494579321471 65:1.0 134:1.0 152:1.0 399:1.0 
1.0 0.0 0.0 152:1.0 399:1.0 
1.0 0.0 0.1161076393241971 81:1.0 109:1.0 152:1.0 301:1.0 399:1.0 412:1.0 
1.0 0.0 0.0 2:1.0 152:1.0 365:1.0 399:1.0 
1.0 0.0 0.0 152:1.0 327:1.0 399:1.0 
1.0 0.0 0.0 133:1.0 134:1.0 152:1.0 153:1.0 162:1.0 183:1.0 366:1.0 399:1.0 
1.0 0.0 0.0 152:1.0 399:1.0 
1.0 0.0 0.0 152:1.0 399:1.0 
1.0 0.0 0.0 152:1.0 382:1.0 399:1.0 426:1.0 
0.8694110262795852 0.0 0.0 20:1.0 41:1.0 152:1.0 220:1.0 344:1.0 399:2.0 
1.0 0.0 0.0 2:1.0 152:1.0 161:1.0 175:1.0 271:1.0 382:1.0 399:1.0 
1.0 0.0 0.0 152:1.0 153:1.0 399:1.0 
1.0 0.0 0.31578038560192223 71:1.0 119:1.0 152:1.0 153:1.0 175:1.0 323:1.0 399:1.0 
1.0 0.0 0.0 109:1.0 152:1.0 209:1.0 399:1.0 
1.0 0.0 0.0 152:1.0 323:1.0 361:1.0 399:1.0 
1.0 0.0 0.0777010191549593 113:1.0 152:1.0 255:1.0 399:1.0 
1.0 0.0 1.0 152:1.0 343:1.0 399:1.0 
1.0 0.0 0.0 27:1.0 143:1.0 152:1.0 153:1.0 370:1.0 399:1.0 
1.0 0.0 0.0 74:1.0 152:1.0 255:1.0 399:1.0 
1.0 0.22663880079766652 0.0 31:1.0 53:1.0 152:1.0 185:1.0 314:1.0 399:1.0 
1.0 0.0 0.0 8:1.0 152:1.0 266:1.0 343:1.0 399:1.0 413:1.0 
1.0 0.0 0.9709335223807252 152:1.0 169:1.0 226:1.0 255:1.0 399:1.0 
1.0 0.0 0.0 97:1.0 152:1.0 399:1.0 
1.0 0.0 0.0 40:1.0 140:1.0 152:1.0 175:1.0 185:1.0 399:1.0 427:1.0 
1.0 0.0 0.0 152:1.0 399:1.0 
1.0 0.0 0.20717589404055084 152:1.0 255:1.0 303:1.0 304:1.0 367:1.0 399:1.0 
1.0 0.0 0.0 43:1.0 55:1.0 62:1.0 152:1.0 266:1.0 373:1.0 399:1.0 
0.8866616205511818 0.0 0.0 2:1.0 323:1.0 367:1.0 399:1.0 413:1.0 430:1.0 
1.0 0.0 0.0 152:1.0 399:1.0 
1.0 0.0 0.2619229822768513 152:2.0 222:1.0 399:1.0 
1.0 0.0 0.0 31:1.0 130:1.0 152:1.0 153:1.0 370:1.0 399:1.0 
1.0 0.0 0.0 130:1.0 134:1.0 152:1.0 153:1.0 255:1.0 370:1.0 399:1.0 
1.0 0.0 0.0 104:1.0 152:1.0 183:1.0 222:1.0 303:1.0 382:1.0 399:1.0 
1.0 0.0 0.0 113:1.0 152:1.0 153:1.0 183:1.0 367:1.0 370:1.0 399:1.0 
1.0 0.0 0.01029149210526343 92:1.0 152:1.0 194:1.0 399:1.0 
1.0 0.0 0.01030353261463221 58:1.0 152:1.0 194:1.0 399:1.0 
0.2541958326451552 0.0 0.010297726249007676 152:1.0 194:1.0 399:1.0 415:1.0 
1.0 0.0 1.0 21:1.0 152:1.0 399:1.0 
1.0 0.0 0.0 8:1.0 10:1.0 21:1.0 152:1.0 153:1.0 183:1.0 255:1.0 271:1.0 283:1.0 359:1.0 367:1.0 370:1.0 399:1.0 409:1.0 
1.0 0.0 0.0 21:1.0 152:1.0 382:1.0 399:1.0 421:1.0 
1.0 0.0 0.0 2:1.0 3:1.0 152:1.0 153:1.0 343:1.0 399:1.0 
0.0 0.0 0.8742041576887355 398:1.0 399:1.0 419:2.0 
0.0 0.5401500031097118 0.0 21:1.0 227:1.0 305:1.0 387:1.0 399:1.0 416:1.0 
0.0 0.004047648592422757 0.0 7:1.0 352:1.0 385:1.0 390:1.0 399:1.0 
0.0 1.0 0.0 130:1.0 165:1.0 255:1.0 317:1.0 323:1.0 387:1.0 399:1.0 422:1.0 
0.0 0.23883467197397953 0.0 63:1.0 130:1.0 143:1.0 224:1.0 323:1.0 387:1.0 399:1.0 
1.0 0.0 0.0 8:1.0 152:1.0 382:1.0 399:1.0 
0.0 0.341904096853353 0.0 8:1.0 31:1.0 81:1.0 138:1.0 153:1.0 169:1.0 212:1.0 255:1.0 317:1.0 399:1.0 422:1.0 424:1.0 
0.9494063497453468 0.0 0.0 81:1.0 152:1.0 153:1.0 236:1.0 255:1.0 337:1.0 382:1.0 395:1.0 399:1.0 
0.0 0.0033613187249021763 0.01816290491906428 4:1.0 117:1.0 130:1.0 343:1.0 363:1.0 394:1.0 399:1.0 
1.0 0.0 0.27300877320883504 152:1.0 161:1.0 317:1.0 399:1.0 
1.0 0.0 0.0 8:1.0 81:1.0 134:1.0 184:1.0 305:1.0 323:1.0 324:1.0 399:1.0 400:1.0 
1.0 0.0 0.0 152:1.0 399:1.0 
1.0 0.0 0.0 152:1.0 161:1.0 244:1.0 274:1.0 309:1.0 343:1.0 399:1.0 413:1.0 
1.0 0.0 0.0 130:1.0 152:1.0 254:1.0 304:1.0 376:1.0 399:1.0 402:1.0 
1.0 0.0 0.0 130:1.0 152:1.0 399:1.0 
0.0 3.2231124180372964E-4 0.06329980622577468 130:1.0 250:2.0 288:1.0 399:1.0 
1.0 0.0 0.0 21:2.0 31:1.0 83:1.0 208:1.0 279:1.0 305:1.0 323:2.0 382:1.0 399:1.0 
0.0 0.020954744263015 0.050638179568710195 6:1.0 51:1.0 147:1.0 161:1.0 247:1.0 255:1.0 392:1.0 399:1.0 407:1.0 420:1.0 
1.0 0.0 0.2189825831027686 102:1.0 128:1.0 186:1.0 194:1.0 208:1.0 399:1.0 413:1.0 
0.8674361454014219 0.0 0.0 41:1.0 63:1.0 317:1.0 343:1.0 379:1.0 399:1.0 
1.0 0.0 0.0 152:1.0 209:1.0 247:1.0 399:1.0 417:1.0 
0.0 0.5304726970796729 0.0 81:1.0 160:1.0 242:1.0 367:1.0 399:1.0 
1.0 0.0 0.45465634917314707 14:1.0 152:1.0 175:1.0 212:1.0 399:1.0 
0.0 0.9935807407550806 0.0 130:1.0 235:1.0 255:1.0 259:1.0 305:1.0 382:1.0 399:1.0 414:2.0 
0.29740089551729426 0.0 0.0 2:1.0 140:1.0 152:1.0 220:1.0 254:1.0 370:1.0 399:1.0 414:1.0 419:1.0 
0.0 1.0 0.0 130:1.0 147:1.0 169:1.0 317:1.0 399:1.0 
0.0 0.36231658907262054 0.0 8:1.0 227:1.0 266:1.0 330:1.0 399:1.0 
1.0 0.0 0.0 113:1.0 130:1.0 146:1.0 183:1.0 208:1.0 399:1.0 
1.0 0.0 0.0 146:1.0 166:1.0 178:1.0 208:1.0 213:1.0 365:1.0 371:1.0 382:1.0 394:1.0 399:1.0 
1.0 0.0 0.0 76:1.0 104:1.0 208:1.0 310:1.0 343:1.0 399:1.0 412:2.0 
1.0 0.944678895639813 0.0 2:1.0 41:1.0 71:1.0 152:1.0 176:1.0 212:1.0 337:1.0 382:1.0 399:1.0 
0.0 0.006116551230005486 0.09204194932522364 9:1.0 110:2.0 136:1.0 245:1.0 356:1.0 399:1.0 
1.0 0.0 0.0 12:1.0 152:1.0 166:1.0 385:1.0 399:1.0 407:1.0 
0.0 1.0 0.0 63:1.0 146:3.0 343:1.0 376:1.0 382:1.0 399:1.0 
0.0 0.008067757024503719 0.0 6:1.0 153:1.0 193:1.0 209:1.0 288:1.0 346:1.0 370:1.0 382:2.0 399:1.0 
1.0 0.0 0.0 103:1.0 152:1.0 212:1.0 254:2.0 323:1.0 399:1.0 424:1.0 
1.0 0.0 0.0 6:1.0 31:1.0 146:1.0 152:1.0 153:1.0 255:1.0 259:1.0 311:1.0 370:1.0 399:1.0 413:1.0 
0.0 0.1254649936874646 0.0 2:1.0 6:1.0 110:2.0 147:1.0 239:1.0 337:1.0 399:1.0 
0.0 0.013978279157259858 0.0 42:1.0 110:2.0 138:1.0 224:1.0 384:1.0 399:1.0 411:1.0 413:1.0 
1.0 0.0 0.0 44:2.0 72:1.0 208:1.0 210:1.0 264:1.0 399:2.0 
0.0 1.0 0.0 235:1.0 399:1.0 
0.6237527997625113 0.0 0.0 184:1.0 212:1.0 399:1.0 422:1.0 
0.9551375929808111 0.0 0.0 152:1.0 294:1.0 360:1.0 382:1.0 386:1.0 397:1.0 399:1.0 
0.0 0.7732212253855224 0.0 51:1.0 161:1.0 166:1.0 352:1.0 365:1.0 377:1.0 399:1.0 
1.0 0.0 0.0 2:1.0 104:1.0 122:1.0 161:1.0 228:1.0 255:1.0 323:1.0 382:1.0 399:1.0 417:1.0 
0.0 1.0 0.0 10:1.0 138:1.0 161:1.0 183:2.0 235:1.0 348:1.0 367:2.0 382:1.0 395:1.0 399:1.0 
1.0 0.0 0.0 134:1.0 208:1.0 337:1.0 354:1.0 399:1.0 
0.9313506738611923 0.0 0.0 181:1.0 210:1.0 399:1.0 
1.0 0.0 0.0 152:1.0 222:1.0 266:1.0 305:2.0 382:1.0 399:1.0 
0.0 0.024861427322864442 0.0 21:1.0 81:1.0 85:1.0 130:1.0 147:1.0 247:2.0 254:1.0 382:1.0 399:1.0 419:1.0 
1.0 0.0 0.0 137:1.0 152:1.0 239:1.0 374:1.0 399:1.0 
1.0 0.0 0.0 175:1.0 212:1.0 343:1.0 399:1.0 425:1.0 
1.0 0.0 0.0 16:1.0 31:1.0 212:1.0 307:1.0 399:1.0 
1.0 0.06145733554292447 0.0 81:1.0 208:1.0 281:1.0 376:1.0 399:1.0 
0.0 1.0 0.0 234:1.0 235:1.0 382:1.0 399:1.0 
0.0 0.6511979354869994 0.0 47:1.0 136:1.0 147:1.0 162:1.0 194:1.0 254:2.0 343:1.0 399:1.0 
0.0 1.0 0.0 235:1.0 399:1.0 
1.0 0.0 0.597561529888848 208:1.0 263:1.0 399:1.0 
1.0 0.0 0.0 153:1.0 208:1.0 309:1.0 332:1.0 381:1.0 399:1.0 
1.0 0.0 0.0 208:9.0 382:1.0 399:1.0 412:1.0 
1.0 0.0 0.0 8:1.0 147:1.0 194:1.0 208:1.0 212:1.0 271:1.0 305:2.0 358:1.0 382:1.0 399:1.0 
1.0 0.0 0.0 175:1.0 208:1.0 382:1.0 399:2.0 
1.0 0.0 0.0 31:1.0 208:1.0 209:1.0 399:1.0 
0.0 0.007869902948396526 0.0 2:1.0 9:1.0 227:1.0 323:1.0 366:2.0 383:1.0 399:1.0 417:1.0 
1.0 0.0 0.0812665914266228 38:1.0 62:1.0 152:1.0 161:1.0 397:1.0 399:1.0 
0.42670192271688245 0.5462955035593526 0.0 130:1.0 165:1.0 399:1.0 407:1.0 
0.0 1.0 0.0 235:1.0 247:1.0 399:1.0 
1.0 0.016886570376398114 0.0 2:1.0 110:2.0 140:1.0 208:1.0 310:1.0 324:1.0 365:2.0 370:1.0 399:1.0 
1.0 0.0 0.0 143:1.0 152:1.0 158:2.0 266:1.0 353:1.0 399:1.0 
0.0 0.9902290958277274 0.0 41:1.0 130:1.0 183:1.0 223:1.0 323:1.0 374:1.0 382:1.0 399:1.0 
0.0 0.014159959466636948 0.0 21:1.0 42:1.0 134:1.0 215:1.0 269:1.0 310:1.0 399:1.0 
0.0 0.0020018025259910203 0.0 42:1.0 153:1.0 178:1.0 226:1.0 310:1.0 327:1.0 399:1.0 419:1.0 
0.0 0.3780766576246852 0.0 210:1.0 330:1.0 399:1.0 
0.0 0.5309960803498269 0.0 210:1.0 330:1.0 399:1.0 
1.0 0.0 0.9650656292409375 134:1.0 161:3.0 208:1.0 324:1.0 399:1.0 
1.0 0.0 0.0 208:1.0 317:2.0 399:1.0 
1.0 0.164431042307073 0.0 152:1.0 183:1.0 283:1.0 399:1.0 
0.0 0.207085578524846 0.0 42:1.0 45:1.0 300:1.0 399:1.0 413:1.0 435:1.0 
0.0 0.0 0.2301620325189389 13:1.0 21:2.0 362:1.0 399:1.0 
0.0 0.0 0.6796549842866472 140:1.0 182:1.0 399:1.0 
0.03125927942994907 0.0 1.4930370922677818E-4 31:1.0 152:1.0 350:8.0 399:1.0 
1.0 0.0 0.0 109:1.0 178:1.0 208:1.0 212:2.0 275:1.0 346:1.0 399:1.0 
1.0 0.0 0.0 152:1.0 330:1.0 382:1.0 399:1.0 
0.0 0.0 0.017492990134787906 30:1.0 212:1.0 362:1.0 365:1.0 367:1.0 399:1.0 414:2.0 
1.0 0.0 0.0 2:1.0 21:1.0 152:1.0 399:1.0 426:1.0 
1.0 0.0 0.0 104:1.0 107:1.0 399:1.0 424:1.0 
0.17418314603516608 0.0 0.0 3:1.0 50:1.0 263:1.0 399:1.0 400:1.0 
1.0 0.0 0.0 21:1.0 152:1.0 153:1.0 220:1.0 255:1.0 268:1.0 399:1.0 
0.7528330209557098 0.0 0.0 31:1.0 110:2.0 279:1.0 336:1.0 343:1.0 399:1.0 
0.0 0.010879823164285183 0.0 2:1.0 44:1.0 110:2.0 169:1.0 226:1.0 255:1.0 365:1.0 376:1.0 382:1.0 399:1.0 
0.0 0.0047191565886590126 0.0 31:1.0 130:1.0 165:1.0 323:1.0 347:1.0 399:1.0 
0.0 0.0 0.3630023374176256 38:1.0 367:1.0 399:1.0 
1.0 0.0 0.0 89:1.0 166:1.0 175:1.0 208:1.0 399:1.0 
1.0 0.0 0.0 8:1.0 22:1.0 130:1.0 152:1.0 161:1.0 224:1.0 271:1.0 376:1.0 382:1.0 399:1.0 
0.0 0.8553480632665564 0.0 2:1.0 8:1.0 17:1.0 109:1.0 130:1.0 306:1.0 382:1.0 399:1.0 
0.0 0.012706613823538477 0.15097798009911234 130:2.0 131:3.0 153:1.0 175:1.0 227:1.0 262:1.0 370:1.0 399:1.0 
0.0 0.18643815881671297 0.0 2:1.0 130:1.0 131:1.0 140:1.0 147:1.0 161:1.0 165:1.0 196:1.0 337:1.0 399:1.0 
1.0 0.0 0.0 31:1.0 130:2.0 208:1.0 279:1.0 399:1.0 
1.0 0.0 0.17686753670967334 8:1.0 130:1.0 138:1.0 152:1.0 255:1.0 399:1.0 
1.0 0.0 0.0 8:1.0 75:1.0 130:2.0 175:1.0 208:1.0 294:1.0 300:1.0 382:1.0 399:1.0 407:1.0 413:1.0 422:1.0 
0.0 0.46438455182386135 0.0 81:1.0 130:1.0 317:1.0 367:1.0 399:1.0 
1.0 0.0 0.0 130:2.0 152:1.0 399:2.0 
1.0 0.7012473138694553 0.0 130:1.0 152:1.0 153:1.0 252:1.0 370:1.0 399:1.0 430:1.0 
0.0 0.028824234953167095 0.0 130:1.0 151:1.0 179:1.0 276:1.0 399:1.0 
0.0 1.0 0.0 130:1.0 235:1.0 363:1.0 382:1.0 399:1.0 
1.0 0.0 0.0 124:1.0 130:1.0 208:1.0 399:1.0 
0.0 0.12362425155746992 0.027593801549192304 21:1.0 130:1.0 284:1.0 289:1.0 314:1.0 323:1.0 399:1.0 
0.18902003096706232 0.0 0.0 6:1.0 8:1.0 104:1.0 244:1.0 295:1.0 399:1.0 413:1.0 
0.2671228675779167 0.0 0.0 121:1.0 146:1.0 183:1.0 399:1.0 400:1.0 408:1.0 
1.0 0.0 1.0 152:1.0 194:1.0 399:1.0 
0.0 0.0025908714614357774 0.0 16:1.0 51:1.0 145:1.0 212:1.0 247:1.0 323:1.0 330:1.0 399:1.0 
0.0 1.0 0.0 130:1.0 183:1.0 235:2.0 259:1.0 294:1.0 343:1.0 399:1.0 
0.0 0.008671184140125954 0.0 135:1.0 146:1.0 178:1.0 212:2.0 271:1.0 343:1.0 383:1.0 399:1.0 
1.0 0.0 0.0 124:1.0 130:1.0 208:1.0 268:1.0 307:1.0 399:1.0 
0.0 1.0 0.0 8:1.0 16:1.0 153:1.0 165:1.0 323:1.0 365:1.0 399:1.0 
0.0 1.0 0.0 62:1.0 178:1.0 206:1.0 235:1.0 265:1.0 304:1.0 367:1.0 382:1.0 399:1.0 402:1.0 
0.5366315571753322 0.0 0.0 65:1.0 152:1.0 356:1.0 399:1.0 
1.0 0.0 0.17725551534781236 21:1.0 71:1.0 178:1.0 254:1.0 399:1.0 400:1.0 413:1.0 432:1.0 
0.23175649779743884 0.0 0.0 28:1.0 269:1.0 323:1.0 399:1.0 413:1.0 430:1.0 
0.34040319691107973 0.0 0.0 80:1.0 95:1.0 158:1.0 374:1.0 399:1.0 420:1.0 
0.7370423940607673 0.0 0.010330295371434784 31:1.0 40:1.0 138:2.0 282:1.0 313:1.0 399:1.0 
0.0 6.25804445808272E-4 0.16889258766792234 33:1.0 41:1.0 130:1.0 361:1.0 399:1.0 
0.03968403125329367 0.0 0.0 45:1.0 124:1.0 130:1.0 179:1.0 380:1.0 399:1.0 
0.0 0.9933106782469892 0.0 194:1.0 245:1.0 399:1.0 419:1.0 
0.7866249706735459 0.0 0.0 31:1.0 128:1.0 178:1.0 258:1.0 399:1.0 
0.0 0.683301980045656 0.0 143:1.0 178:1.0 189:1.0 323:1.0 399:1.0 400:1.0 
0.0 0.9782425993967453 0.0 50:1.0 63:1.0 247:1.0 385:1.0 399:1.0 
0.6234862664040898 0.0012614468235480575 0.0 27:1.0 317:2.0 385:1.0 399:1.0 426:1.0 
1.0 0.0 0.0 2:1.0 149:1.0 152:2.0 153:1.0 212:1.0 307:1.0 399:1.0 415:1.0 
1.0 0.0 0.0 152:1.0 301:1.0 399:1.0 
0.0 1.0 0.0 89:1.0 97:1.0 130:1.0 194:2.0 235:1.0 266:1.0 399:1.0 427:1.0 
1.0 0.0 0.0 152:1.0 399:1.0 
0.0 0.0 0.09240543345883762 217:1.0 323:1.0 398:1.0 399:1.0 
0.9663638034606633 0.8528533632016753 0.1391981076651956 68:1.0 108:1.0 130:1.0 152:1.0 217:1.0 330:1.0 399:1.0 
0.0 0.01790893207633663 0.10933801047160262 131:1.0 134:1.0 242:1.0 255:1.0 323:1.0 333:1.0 399:1.0 400:1.0 
0.0 0.20643052936283396 0.0 74:1.0 130:1.0 131:1.0 143:1.0 281:1.0 366:1.0 399:1.0 
0.0 0.49948040139452976 0.0 50:1.0 209:1.0 237:1.0 399:1.0 
0.46858140242967367 0.015431259302706958 0.2850224861567628 14:1.0 152:1.0 352:1.0 367:1.0 399:1.0 405:1.0 413:1.0 
1.0 0.0 0.0 140:1.0 152:1.0 399:1.0 
0.6981120249083868 0.0 0.0 37:1.0 130:1.0 152:1.0 195:1.0 367:1.0 399:1.0 
0.0 1.0 0.0 92:1.0 130:1.0 376:1.0 399:1.0 
1.0 0.0 0.0 152:1.0 374:1.0 399:1.0 
0.0 1.0 0.0 2:1.0 66:2.0 235:1.0 315:1.0 317:1.0 399:1.0 
1.0 0.0 0.0 2:1.0 137:1.0 142:1.0 146:1.0 152:1.0 220:1.0 247:1.0 399:1.0 
1.0 0.0 0.03320144514172052 108:1.0 138:1.0 208:1.0 271:1.0 330:1.0 352:1.0 399:1.0 419:1.0 
0.9091933870098345 0.0 0.048663376460801086 152:1.0 164:1.0 223:1.0 303:1.0 367:1.0 399:1.0 
0.059828399569195057 0.0 0.0 175:1.0 299:1.0 317:1.0 399:1.0 
0.0 0.11609183153930738 0.0044999407671353145 117:1.0 140:1.0 142:1.0 239:1.0 300:1.0 397:1.0 399:1.0 413:1.0 
1.0 0.0 0.0 152:1.0 241:1.0 363:1.0 382:1.0 399:1.0 
1.0 0.042105901403308735 0.0 49:1.0 151:1.0 177:1.0 281:1.0 399:1.0 
0.0 0.01893947229104435 0.0 123:1.0 130:1.0 264:1.0 304:1.0 399:1.0 
0.0 0.6493144911886296 0.0 147:1.0 183:1.0 254:2.0 281:1.0 367:2.0 374:1.0 399:1.0 
0.0 0.0 0.36367021617988265 178:1.0 262:1.0 323:1.0 399:1.0 417:1.0 421:1.0 
1.0 0.0 0.21089615061295372 8:1.0 142:1.0 152:1.0 255:1.0 323:1.0 399:1.0 
1.0 0.0 0.0 60:1.0 152:1.0 153:1.0 158:1.0 208:1.0 399:1.0 
1.0 0.0 0.0 62:1.0 152:1.0 399:1.0 
0.0 1.0 0.0 235:1.0 261:1.0 301:2.0 382:1.0 399:1.0 
1.0 0.0 0.0 130:1.0 145:1.0 152:1.0 304:1.0 330:1.0 399:1.0 
1.0 0.0 0.0 16:1.0 130:1.0 183:1.0 197:1.0 323:1.0 343:1.0 399:1.0 
1.0 0.0 0.0 130:1.0 323:1.0 395:1.0 399:1.0 
0.0 0.046975803822829246 0.0 41:1.0 85:1.0 130:1.0 237:1.0 330:1.0 370:1.0 399:1.0 413:1.0 431:1.0 
0.0 0.0 0.08320508283141081 6:1.0 31:1.0 53:1.0 130:2.0 255:2.0 311:1.0 399:1.0 413:1.0 
1.0 0.012590478528625368 0.0 105:1.0 130:1.0 152:1.0 153:1.0 208:1.0 264:1.0 281:1.0 317:1.0 343:1.0 399:1.0 424:1.0 
1.0 0.0 0.0 57:1.0 134:1.0 152:1.0 304:1.0 337:1.0 359:1.0 365:1.0 382:1.0 399:1.0 
0.0 1.0 0.0 89:1.0 235:1.0 399:1.0 
1.0 0.0 0.0 10:1.0 138:1.0 208:2.0 305:1.0 382:1.0 399:1.0 422:1.0 
1.0 0.0 0.0 85:1.0 208:1.0 282:1.0 324:1.0 393:1.0 399:1.0 413:1.0 
1.0 0.0 0.0 152:1.0 399:1.0 
1.0 0.0 0.0 153:1.0 177:1.0 208:1.0 399:1.0 
0.0 0.36289672237444276 0.05446252072947435 130:1.0 147:1.0 352:1.0 362:1.0 376:1.0 399:1.0 
0.8137915173866568 0.0 0.0 129:1.0 152:1.0 153:1.0 161:1.0 210:1.0 238:1.0 333:1.0 370:1.0 382:1.0 399:1.0 
0.0 0.017809768054746735 0.0 130:1.0 238:1.0 399:1.0 
0.0 0.2732201905086842 0.00881957695607242 38:1.0 181:1.0 238:1.0 323:1.0 399:1.0 
1.0 0.2654749476592966 0.0 50:1.0 130:2.0 153:2.0 204:1.0 238:1.0 253:1.0 255:2.0 314:1.0 399:1.0 414:1.0 
0.0 0.4295326766358841 0.0 51:1.0 130:2.0 177:1.0 238:1.0 247:1.0 399:1.0 414:1.0 
0.43119602524048095 0.0 0.0 110:2.0 142:1.0 165:1.0 183:1.0 323:2.0 399:1.0 
0.18245675501705588 0.0 0.0 63:1.0 172:1.0 177:1.0 242:1.0 324:1.0 366:1.0 399:1.0 425:1.0 432:1.0 
0.26584429091407574 0.0 0.0 63:1.0 212:1.0 397:1.0 399:1.0 432:1.0 
0.7116658005927926 0.0 0.0 8:1.0 48:1.0 146:1.0 152:1.0 237:1.0 276:1.0 282:1.0 363:1.0 399:1.0 403:1.0 413:1.0 
0.0 0.05933309662006837 0.0 124:1.0 147:1.0 279:1.0 352:1.0 399:1.0 
1.0 0.0 0.0 152:1.0 226:1.0 305:1.0 382:1.0 399:1.0 
1.0 0.0 0.003892916353240231 8:1.0 38:1.0 133:1.0 152:1.0 178:1.0 382:1.0 399:1.0 417:1.0 
0.08574298866211337 0.7638570185177921 0.0 110:2.0 242:1.0 335:1.0 399:1.0 
0.5454321503219413 0.06439538458863203 1.0 8:1.0 25:1.0 79:1.0 130:1.0 133:1.0 152:1.0 197:1.0 277:1.0 281:1.0 300:1.0 359:1.0 399:1.0 413:1.0 
0.0 0.0 0.2389670748315513 66:2.0 142:1.0 269:1.0 382:1.0 399:1.0 
0.0 0.021181839933321296 0.0 153:1.0 283:1.0 317:2.0 344:1.0 371:1.0 399:1.0 
1.0 0.0 0.0 152:1.0 317:1.0 399:1.0 
0.0 0.0 0.33465566812990244 12:1.0 342:2.0 399:1.0 
1.0 0.0 0.0 2:1.0 76:1.0 152:1.0 345:1.0 361:1.0 382:1.0 399:1.0 413:1.0 424:1.0 
0.7966563526116391 0.0 0.0 34:1.0 50:1.0 307:1.0 358:1.0 399:1.0 416:1.0 
0.33430047091296294 0.0 0.0 31:1.0 130:1.0 152:1.0 220:2.0 254:1.0 383:1.0 399:1.0 413:2.0 
1.0 0.0 0.0 63:1.0 85:1.0 152:1.0 317:1.0 382:1.0 399:1.0 
0.0 0.0 0.6466882615802021 21:2.0 136:1.0 399:1.0 
1.0 0.0 0.09242981800150012 21:1.0 44:1.0 152:1.0 330:1.0 399:1.0 
1.0 0.0 0.0 21:1.0 153:1.0 208:1.0 287:1.0 330:1.0 376:1.0 399:1.0 413:1.0 
1.0 0.0 0.0 2:1.0 45:1.0 152:1.0 161:1.0 254:1.0 363:1.0 365:1.0 399:1.0 412:1.0 
0.0 0.29283062560656187 0.0 47:1.0 217:1.0 360:1.0 376:1.0 399:1.0 407:1.0 
0.0 0.9597872792640904 0.0 8:1.0 90:2.0 130:1.0 343:1.0 397:1.0 399:1.0 419:1.0 
1.0 0.0 0.0 166:1.0 304:1.0 325:1.0 343:1.0 394:1.0 399:1.0 425:1.0 
1.0 0.0 0.0 8:1.0 130:1.0 143:1.0 208:1.0 317:1.0 366:1.0 382:1.0 399:1.0 
0.0 0.031586213086422836 0.0 8:1.0 50:1.0 130:1.0 255:1.0 266:1.0 317:2.0 363:1.0 399:1.0 
0.0 1.0 0.0 27:1.0 216:1.0 235:1.0 305:1.0 382:1.0 399:1.0 
1.0 0.0 0.0 104:1.0 133:1.0 152:1.0 399:1.0 428:1.0 
1.0 0.0 0.0 21:1.0 41:1.0 179:1.0 208:1.0 376:1.0 381:1.0 399:1.0 
0.34927477843193916 0.0 0.0 130:2.0 152:1.0 194:1.0 207:1.0 279:1.0 343:1.0 367:1.0 382:1.0 399:1.0 422:1.0 
0.0 0.008851906792825001 0.0 81:2.0 119:1.0 254:1.0 323:1.0 399:1.0 
0.0 0.0 0.21678475992895002 32:1.0 63:1.0 119:1.0 131:1.0 399:1.0 
0.0 0.0 0.20549445724211243 206:1.0 226:1.0 257:1.0 315:1.0 323:1.0 399:1.0 425:1.0 
0.0 0.0 0.07432094341134891 2:1.0 25:1.0 41:1.0 194:1.0 362:1.0 399:1.0 430:1.0 
0.0 0.9850303590951568 0.0 21:1.0 123:1.0 130:1.0 399:1.0 429:1.0 
1.0 0.0 0.0 152:1.0 175:1.0 244:1.0 254:1.0 399:1.0 406:1.0 
1.0 0.0 0.0 152:1.0 399:1.0 
0.0 0.1518204605296039 0.0 8:1.0 12:1.0 130:1.0 161:1.0 266:1.0 323:1.0 399:1.0 
1.0 0.0 0.0 152:1.0 212:1.0 337:1.0 399:1.0 
1.0 0.0 0.0 8:1.0 116:1.0 130:1.0 202:1.0 209:1.0 225:1.0 266:1.0 337:1.0 374:1.0 382:1.0 399:1.0 
0.0 0.8138952747538187 0.0 31:1.0 45:1.0 110:2.0 119:1.0 130:1.0 151:1.0 337:1.0 395:1.0 399:1.0 412:1.0 
0.2396005287851758 0.0 0.0 86:1.0 90:1.0 317:1.0 340:1.0 399:1.0 
1.0 0.0 0.0 152:1.0 281:1.0 399:1.0 435:1.0 
1.0 0.0 0.0 130:1.0 152:1.0 185:1.0 255:1.0 279:1.0 367:1.0 382:1.0 399:1.0 
0.2547637173283817 0.0 0.024105148293639758 50:1.0 81:1.0 117:2.0 175:1.0 266:1.0 315:1.0 372:1.0 373:1.0 399:1.0 
0.0 1.0 0.0 130:1.0 235:1.0 270:1.0 399:1.0 
0.4834500609504554 0.49229292749770404 0.0 153:1.0 254:1.0 361:2.0 370:1.0 399:1.0 
0.6369612646685054 0.0 0.0 341:1.0 366:1.0 399:1.0 
0.0 1.0 0.0 130:1.0 162:1.0 307:1.0 317:1.0 394:1.0 399:1.0 
1.0 0.0 0.0 152:1.0 209:1.0 399:1.0 
1.0 0.0 0.0 20:1.0 152:1.0 153:1.0 267:1.0 370:1.0 399:1.0 
1.0 0.0 0.042223364911595 22:1.0 152:2.0 209:1.0 399:1.0 
0.0 0.00799873132198915 0.078760640877409 6:2.0 130:1.0 209:1.0 343:1.0 399:1.0 413:1.0 
0.0 1.0 0.0 2:1.0 212:1.0 235:1.0 366:1.0 399:1.0 412:1.0 
1.0 0.0 0.0 208:1.0 382:1.0 397:1.0 399:1.0 412:1.0 
1.0 0.0 0.0 152:1.0 172:1.0 193:1.0 374:1.0 399:1.0 412:1.0 
0.6004184281347706 0.02407577556304516 0.0 152:1.0 167:1.0 236:1.0 282:1.0 399:1.0 413:1.0 
1.0 0.0 0.0 21:1.0 316:1.0 399:1.0 413:1.0 
0.0 0.004846548679370205 0.0 41:1.0 210:1.0 227:1.0 281:1.0 345:1.0 399:1.0 412:1.0 
1.0 0.0 0.0 25:1.0 110:2.0 256:1.0 394:1.0 399:1.0 413:1.0 
1.0 0.0 0.0 2:1.0 31:1.0 152:1.0 252:1.0 345:1.0 399:1.0 
0.0 1.0 0.0 8:1.0 31:1.0 130:1.0 146:1.0 266:2.0 397:1.0 399:1.0 
1.0 0.0 0.0 210:1.0 317:1.0 399:1.0 
0.0 0.002362101451666021 0.0 130:2.0 294:1.0 310:1.0 399:1.0 
0.0 0.0010733378482155678 0.0 66:1.0 74:1.0 110:2.0 269:1.0 394:1.0 399:1.0 
0.0 0.0 0.1717893640015633 130:1.0 142:1.0 161:1.0 255:1.0 294:1.0 305:1.0 318:1.0 323:1.0 389:1.0 399:1.0 
0.0 1.0 0.0 212:1.0 235:1.0 247:1.0 399:1.0 
0.0 1.0 0.0 153:1.0 237:1.0 310:1.0 382:1.0 399:1.0 
0.0 2.684487030215288E-4 0.0 130:1.0 282:1.0 310:1.0 399:1.0 
1.0 0.0 0.0 12:1.0 23:1.0 130:1.0 152:1.0 387:1.0 399:1.0 407:1.0 424:1.0 
0.0 0.024681503148072895 0.0 57:1.0 134:1.0 167:1.0 399:1.0 
0.0 0.0 0.019723475388859848 41:1.0 289:1.0 384:1.0 399:1.0 
0.0 0.3505102135658853 0.0 28:1.0 85:1.0 155:1.0 317:1.0 399:1.0 
1.0 0.0 0.0 47:1.0 110:2.0 147:1.0 152:1.0 153:1.0 161:1.0 266:1.0 382:1.0 399:1.0 
0.0 0.9219024950280963 0.0 109:1.0 344:1.0 363:1.0 367:1.0 385:1.0 399:1.0 
0.0 1.0 0.0 41:1.0 235:1.0 354:1.0 399:1.0 
1.0 0.0 0.0 228:1.0 323:1.0 365:1.0 399:1.0 400:1.0 
1.0 0.0 0.0 2:1.0 152:1.0 244:1.0 365:1.0 382:1.0 399:1.0 
1.0 0.0 0.0 77:1.0 115:1.0 152:1.0 212:1.0 398:1.0 399:1.0 
0.0 0.021875828768665936 0.0 134:1.0 151:1.0 153:1.0 200:1.0 207:1.0 282:1.0 367:1.0 399:1.0 
0.0 0.487157237250354 0.0 63:1.0 131:1.0 143:1.0 387:1.0 399:1.0 435:1.0 
0.0 0.005943844984230665 0.0 127:1.0 176:1.0 226:1.0 261:1.0 355:1.0 399:1.0 404:1.0 
-0.6358276421771183 0.0 0.0 27:1.0 109:2.0 130:1.0 208:1.0 343:1.0 399:1.0 408:1.0 412:1.0 
-1.0 0.0 0.0 8:1.0 208:1.0 255:1.0 317:1.0 365:1.0 382:2.0 399:1.0 406:1.0 
-0.17921618195839356 0.0 0.0 161:1.0 208:1.0 210:1.0 296:1.0 298:1.0 399:1.0 427:1.0 
-0.15310642811388445 0.0 0.0 99:1.0 143:1.0 178:1.0 208:1.0 212:2.0 254:1.0 323:1.0 399:1.0 414:1.0 
-1.0 0.0 0.0 12:1.0 16:1.0 109:1.0 143:2.0 147:1.0 208:1.0 317:1.0 382:1.0 399:1.0 
-1.0 0.0856620131680226 0.11890309454285737 130:1.0 186:1.0 194:1.0 208:1.0 209:1.0 233:1.0 359:1.0 373:1.0 376:1.0 382:1.0 399:1.0 
-1.0 0.0 0.0 147:1.0 153:1.0 208:1.0 399:1.0 
-1.0 0.0 0.0 2:1.0 14:1.0 63:1.0 130:1.0 183:1.0 208:1.0 212:1.0 281:1.0 317:2.0 349:1.0 374:1.0 399:1.0 
-1.0 0.0 0.0 143:1.0 208:1.0 304:3.0 365:1.0 367:1.0 370:1.0 399:1.0 
-1.0 0.0 0.8571751751442556 6:1.0 194:1.0 208:1.0 209:1.0 255:1.0 269:1.0 323:2.0 362:1.0 399:1.0 
-0.17434809235959553 0.0 0.0 45:1.0 97:1.0 135:1.0 161:2.0 166:1.0 208:1.0 290:1.0 382:1.0 399:1.0 407:1.0 
-1.0 0.0 0.0 134:1.0 208:1.0 212:1.0 307:1.0 363:1.0 382:1.0 399:1.0 
-0.00604159675448601 0.0 0.0 64:1.0 172:1.0 208:1.0 309:1.0 399:1.0 
-1.0 0.0 0.0 194:1.0 208:1.0 323:1.0 338:1.0 399:1.0 
-1.0 0.0 0.0 8:1.0 175:1.0 208:1.0 366:1.0 399:1.0 412:1.0 414:1.0 424:1.0 
-0.9133653235369928 0.13501276950666727 0.0 6:1.0 130:1.0 131:1.0 147:1.0 208:1.0 313:1.0 317:1.0 352:1.0 399:1.0 
-0.38910166464936774 0.0 0.0 83:1.0 208:1.0 264:1.0 399:1.0 
-1.0 0.0 0.0 2:1.0 28:1.0 130:1.0 183:1.0 208:1.0 254:1.0 255:1.0 262:1.0 294:1.0 343:1.0 344:1.0 399:1.0 
-1.0 0.01864417132397144 0.0 47:1.0 108:1.0 109:1.0 130:1.0 194:1.0 208:1.0 262:1.0 305:2.0 323:1.0 330:1.0 382:1.0 399:1.0 
-0.9747474939813013 0.0 0.0 12:1.0 44:1.0 62:1.0 130:1.0 153:2.0 208:1.0 212:1.0 370:1.0 399:1.0 
-1.0 0.0 0.0 110:2.0 208:1.0 210:1.0 317:1.0 358:1.0 361:1.0 382:2.0 399:1.0 414:1.0 
-1.0 0.0 0.0 44:2.0 72:1.0 208:1.0 210:1.0 264:1.0 399:2.0 
-0.6577551004601049 0.0 0.15838230280700696 102:1.0 128:1.0 186:1.0 194:1.0 208:1.0 399:1.0 413:1.0 
-0.24943054856168012 0.0 0.0 2:1.0 63:1.0 110:4.0 132:1.0 135:1.0 208:1.0 212:1.0 325:1.0 366:1.0 399:1.0 413:1.0 
-0.5075924239249043 0.0 0.0 110:2.0 138:1.0 175:1.0 208:1.0 282:1.0 305:2.0 343:1.0 382:1.0 397:1.0 399:1.0 
-1.0 0.0 0.0 89:1.0 166:1.0 175:1.0 208:1.0 399:1.0 
-0.28106592513856465 0.0 0.0 51:1.0 87:1.0 130:2.0 208:1.0 279:1.0 382:1.0 397:1.0 399:1.0 424:1.0 
-1.0 0.0 0.0 208:1.0 212:1.0 282:1.0 294:1.0 305:1.0 322:1.0 399:1.0 419:1.0 
-0.6206218751200718 0.0 0.0 2:1.0 110:2.0 140:1.0 208:1.0 310:1.0 324:1.0 365:2.0 370:1.0 399:1.0 
-1.0 0.0 0.0 9:1.0 63:1.0 130:1.0 138:1.0 153:1.0 208:1.0 256:1.0 317:1.0 366:1.0 399:1.0 403:1.0 
-1.0 0.0 0.0 76:1.0 145:1.0 166:1.0 168:1.0 208:1.0 271:1.0 330:1.0 343:1.0 366:1.0 382:1.0 399:1.0 413:1.0 
-0.5674460976121285 0.0 0.0 21:1.0 183:1.0 208:1.0 210:1.0 238:1.0 323:1.0 352:1.0 399:1.0 
-0.038964252674959184 0.0 0.0 19:1.0 208:1.0 259:1.0 
-1.0 0.0 0.0 2:1.0 21:1.0 208:1.0 382:1.0 399:1.0 
-0.027383551179259284 0.0 0.08624532260367995 17:1.0 134:1.0 138:1.0 161:1.0 208:1.0 369:1.0 399:1.0 419:2.0 
-1.0 0.0 0.0 208:1.0 323:1.0 382:1.0 399:1.0 412:1.0 
-1.0 0.8819228534320254 0.0 81:1.0 130:1.0 160:1.0 193:1.0 208:1.0 374:1.0 382:1.0 399:1.0 
-1.0 0.0 0.0 147:1.0 208:1.0 222:1.0 255:1.0 262:1.0 266:2.0 399:1.0 
-0.3591227626883461 0.0 0.0 8:1.0 183:1.0 208:1.0 252:1.0 317:1.0 324:1.0 365:1.0 
-0.35456750934627246 0.0 0.0 16:1.0 25:1.0 41:1.0 109:1.0 113:1.0 133:1.0 208:1.0 240:1.0 305:1.0 310:1.0 323:1.0 399:1.0 413:1.0 
-0.36338690102682203 0.0 0.0 55:1.0 69:1.0 196:1.0 208:1.0 212:1.0 329:1.0 352:1.0 399:1.0 424:1.0 
-0.0 0.057304997252811664 0.0 27:1.0 74:1.0 208:1.0 212:1.0 305:1.0 387:1.0 399:1.0 
-1.0 0.0 0.0 77:1.0 113:1.0 179:1.0 194:1.0 208:1.0 399:1.0 
-0.0 0.0 1.0 109:1.0 110:2.0 161:1.0 208:1.0 295:1.0 399:1.0 
-0.5506349912451541 0.0 0.0 8:1.0 17:1.0 63:1.0 183:1.0 208:1.0 209:1.0 271:1.0 382:1.0 399:1.0 422:1.0 
-1.0 0.0 0.0 61:1.0 146:1.0 178:1.0 183:1.0 208:1.0 399:1.0 
-1.0 0.0 0.0 21:2.0 183:1.0 208:1.0 330:1.0 399:1.0 
-1.0 0.0 0.0 16:2.0 110:2.0 138:1.0 145:1.0 183:1.0 208:1.0 330:1.0 366:1.0 399:1.0 407:1.0 
-1.0 0.0 0.0 14:1.0 147:1.0 181:1.0 183:1.0 208:1.0 352:1.0 366:1.0 399:1.0 
-1.0 0.0 0.0 194:1.0 208:1.0 399:1.0 
-1.0 1.0 0.0 10:1.0 208:1.0 235:1.0 254:1.0 343:1.0 399:1.0 422:1.0 
-1.0 0.0 0.0 17:1.0 124:1.0 130:1.0 143:1.0 161:1.0 208:1.0 399:2.0 
-0.00518176885764867 0.0 0.0 73:1.0 107:1.0 137:1.0 208:1.0 255:1.0 366:1.0 371:1.0 399:1.0 
-0.8213158715177599 0.0 0.0 41:1.0 147:1.0 183:1.0 208:1.0 317:1.0 324:1.0 343:2.0 367:1.0 382:1.0 399:1.0 425:1.0 
-0.18765710165985863 0.03934783905767092 0.14461120886461473 66:2.0 138:1.0 142:1.0 194:1.0 208:1.0 399:1.0 
-1.0 0.0 0.0 140:1.0 208:1.0 399:1.0 
-1.0 0.0 0.0 175:1.0 185:1.0 208:1.0 399:1.0 
-0.26088620793799805 0.0 0.0 41:1.0 109:1.0 122:1.0 130:1.0 208:1.0 317:1.0 323:1.0 366:1.0 399:1.0 424:1.0 
-1.0 0.0 0.0 146:1.0 183:3.0 208:1.0 220:1.0 254:1.0 365:1.0 399:1.0 
-1.0 0.02982867309515681 0.0 8:1.0 10:1.0 29:1.0 147:1.0 208:1.0 399:1.0 
-1.0 0.0 0.0 124:1.0 183:1.0 208:1.0 212:1.0 252:1.0 254:1.0 282:1.0 382:1.0 399:1.0 
-1.0 0.0 0.0 68:1.0 135:1.0 153:1.0 208:1.0 212:1.0 255:1.0 282:1.0 343:1.0 376:1.0 399:1.0 
-0.605825418121813 0.0 0.0 153:1.0 156:1.0 208:1.0 254:1.0 399:1.0 
-1.0 0.09777545965012453 0.0 16:1.0 41:1.0 60:1.0 112:1.0 193:1.0 208:1.0 212:1.0 334:1.0 399:1.0 403:1.0 413:1.0 
-0.9600097683196833 0.0 0.0 67:1.0 124:1.0 175:1.0 177:1.0 183:1.0 208:1.0 279:1.0 363:1.0 381:1.0 382:1.0 399:1.0 
-1.0 0.0 0.0 40:1.0 62:1.0 149:1.0 208:1.0 343:2.0 374:1.0 382:1.0 399:1.0 412:1.0 
-1.0 0.0 0.0 2:1.0 153:1.0 208:1.0 310:1.0 399:2.0 422:1.0 432:1.0 
-1.0 0.0 0.0 81:1.0 130:1.0 161:1.0 175:1.0 183:1.0 208:1.0 254:1.0 382:2.0 399:1.0 
-1.0 0.12872671190971233 0.0 8:1.0 71:1.0 88:1.0 194:1.0 208:1.0 266:1.0 287:1.0 384:1.0 397:1.0 399:1.0 422:1.0 
-1.0 0.0 0.0 63:1.0 113:1.0 178:1.0 208:1.0 399:2.0 
-0.923270475809945 0.0 0.0 64:1.0 172:1.0 208:1.0 309:1.0 399:1.0 
-0.20621757386627515 0.0 0.06288021967517535 14:1.0 50:1.0 130:1.0 208:1.0 399:1.0 
-1.0 0.0 0.0 134:1.0 202:1.0 208:1.0 317:1.0 399:1.0 412:1.0 
-0.13510153518293058 0.0 0.0 196:1.0 208:1.0 279:1.0 284:1.0 382:2.0 399:1.0 
-1.0 0.0 0.0 175:1.0 208:1.0 399:2.0 
-1.0 0.0 0.0 194:1.0 208:1.0 271:1.0 399:1.0 
-1.0 0.0 0.15048786480381435 130:1.0 208:1.0 323:1.0 359:1.0 399:1.0 
-0.7470228844387006 0.0 0.0 130:1.0 208:1.0 282:1.0 337:1.0 399:1.0 
-0.24044949137851565 0.0 0.0 85:1.0 130:1.0 208:1.0 382:1.0 399:1.0 
-0.00344347145667249 0.06638750519949774 0.0 146:1.0 147:1.0 208:1.0 272:3.0 314:1.0 399:1.0 
-0.7621889072351931 0.01570820927766034 0.08205726995585844 21:1.0 31:1.0 161:2.0 208:1.0 345:1.0 390:1.0 399:1.0 417:1.0 
-0.0 0.0 0.061578872137101795 66:1.0 81:1.0 208:1.0 397:1.0 398:1.0 419:2.0 424:1.0 
-0.008667764575007075 0.0 0.0 31:1.0 208:1.0 279:1.0 323:1.0 376:1.0 382:2.0 399:1.0 
-1.0 0.0 0.0 63:1.0 147:1.0 208:1.0 222:1.0 254:1.0 367:1.0 382:2.0 399:1.0 
-0.0 0.0 0.08313398578421033 128:1.0 208:1.0 255:1.0 329:1.0 343:1.0 348:1.0 399:1.0 400:1.0 
-0.46162796264641065 0.0 0.0 31:1.0 53:1.0 183:1.0 208:1.0 212:1.0 255:1.0 343:1.0 382:1.0 385:1.0 399:1.0 
-1.0 0.0 0.0 28:1.0 42:1.0 110:2.0 197:1.0 208:1.0 301:1.0 343:2.0 397:1.0 399:1.0 416:1.0 419:2.0 
-0.6853998648366797 0.0 0.0 110:2.0 130:1.0 197:1.0 208:1.0 247:1.0 255:1.0 301:1.0 343:1.0 374:1.0 399:1.0 416:1.0 419:2.0 
-1.0 0.0 0.07574731006622978 9:1.0 130:2.0 143:1.0 208:1.0 264:1.0 343:1.0 373:1.0 399:1.0 
-0.24709891422970254 0.0 0.0 195:1.0 208:1.0 323:2.0 399:1.0 
-0.0 0.0 0.13914791068058882 31:1.0 81:1.0 136:1.0 208:1.0 255:1.0 283:1.0 304:1.0 367:1.0 382:1.0 399:1.0 419:2.0 
-1.0 0.0 0.0 8:1.0 41:2.0 104:1.0 130:1.0 153:1.0 208:1.0 216:1.0 255:1.0 323:1.0 399:1.0 
-0.2008532200727909 0.0 0.0 130:1.0 153:1.0 208:1.0 242:1.0 317:1.0 370:1.0 399:1.0 
-0.49024053542038193 0.0 0.0 104:1.0 163:1.0 183:1.0 208:1.0 226:1.0 365:1.0 399:1.0 425:1.0 
-0.12375068550276573 0.0 0.0 35:1.0 110:2.0 153:1.0 166:1.0 197:1.0 208:1.0 323:1.0 399:1.0 
-0.0 0.0 0.14837921953160194 208:1.0 263:1.0 399:1.0 
-1.0 0.4292166431615835 0.0 130:1.0 140:1.0 165:1.0 208:1.0 387:1.0 399:1.0 
-0.7425740053492368 0.0 0.0 130:1.0 208:1.0 216:1.0 358:1.0 387:1.0 399:1.0 
-1.0 0.0 0.0 151:1.0 208:1.0 382:1.0 399:1.0 
-1.0 0.12636755945435227 0.0 146:1.0 166:1.0 178:1.0 208:1.0 213:1.0 365:1.0 371:1.0 382:1.0 394:1.0 399:1.0 
-0.7933961359157585 0.0 0.0 130:1.0 208:1.0 212:2.0 305:1.0 307:1.0 359:1.0 381:1.0 399:1.0 424:1.0 
-1.0 0.0 0.0 12:1.0 14:1.0 147:1.0 166:1.0 183:1.0 208:1.0 399:1.0 407:1.0 
-0.0 0.18488780349625056 0.0 8:1.0 81:1.0 161:1.0 208:1.0 212:1.0 376:1.0 382:1.0 399:1.0 430:1.0 
-0.0138095993522514 0.0518091156912275 0.0 74:1.0 134:1.0 161:1.0 208:1.0 382:1.0 399:1.0 407:1.0 
-0.7492568161204759 0.0 0.0 134:1.0 208:1.0 337:1.0 354:1.0 399:1.0 
-0.229663926875148 0.0 0.0 8:1.0 186:1.0 208:1.0 257:1.0 381:1.0 399:1.0 406:1.0 
-0.07296079965163585 0.0 0.0 74:1.0 153:1.0 208:1.0 281:1.0 399:1.0 413:1.0 
-1.0 0.0 0.0 175:1.0 208:1.0 382:1.0 399:2.0 
-0.02045552460092327 0.0 0.0 8:2.0 140:1.0 208:1.0 230:1.0 399:1.0 
-1.0 0.0 0.0 161:1.0 208:1.0 359:1.0 384:1.0 399:1.0 
-0.0 0.0 0.3643745928290236 134:1.0 161:3.0 208:1.0 324:1.0 399:1.0 
-1.0 0.0 0.0 8:1.0 50:1.0 130:1.0 134:1.0 194:1.0 208:1.0 210:1.0 382:1.0 399:1.0 
-0.0 0.01586653571387392 0.0 208:1.0 323:1.0 394:2.0 399:1.0 403:1.0 
-0.5786927379478515 0.0 0.0 124:1.0 130:1.0 208:1.0 268:1.0 307:1.0 399:1.0 
-1.0 0.0 0.0 120:1.0 208:1.0 222:1.0 255:1.0 323:2.0 399:1.0 
-1.0 0.0 0.0 45:1.0 113:1.0 208:1.0 305:1.0 323:1.0 356:1.0 365:1.0 367:1.0 399:1.0 
-1.0 0.0 0.09158404134570412 42:1.0 208:1.0 212:1.0 244:1.0 343:1.0 382:1.0 398:1.0 399:1.0 419:2.0 
-1.0 0.0 0.0 128:1.0 152:1.0 160:1.0 208:1.0 271:1.0 343:1.0 382:2.0 399:4.0 
-1.0 0.0 0.0 146:1.0 179:1.0 183:1.0 208:1.0 262:1.0 337:1.0 382:2.0 399:1.0 424:2.0 
-1.0 0.0 0.0 119:1.0 208:1.0 323:1.0 366:1.0 382:1.0 399:1.0 412:1.0 422:1.0 
-0.010953112630486933 0.0 0.0 2:1.0 71:1.0 87:1.0 208:1.0 254:1.0 282:1.0 384:1.0 399:1.0 
-1.0 0.0 0.0 109:1.0 113:1.0 119:1.0 130:1.0 208:1.0 209:1.0 221:1.0 264:1.0 282:1.0 323:1.0 399:1.0 
-0.775170677107225 0.0 0.0 45:1.0 63:1.0 76:1.0 130:1.0 147:1.0 166:1.0 178:1.0 208:1.0 255:1.0 282:1.0 399:1.0 
-0.0 0.0 0.16518577883641913 128:1.0 130:1.0 208:1.0 348:1.0 399:1.0 
-1.0 0.0 0.0 80:1.0 119:1.0 162:1.0 208:1.0 317:1.0 382:1.0 399:1.0 
-0.9553114390548478 0.0 0.0 3:1.0 8:1.0 21:1.0 77:1.0 133:1.0 175:1.0 208:1.0 282:1.0 304:1.0 366:2.0 374:1.0 376:2.0 399:1.0 
-0.0 0.5895855322960429 0.0 6:1.0 31:1.0 51:1.0 130:1.0 208:1.0 282:1.0 399:1.0 
-1.0 0.0 0.0 16:1.0 23:1.0 47:1.0 153:1.0 183:1.0 208:1.0 226:1.0 284:1.0 303:1.0 305:1.0 365:1.0 382:1.0 399:1.0 
-1.0 0.16080313092295853 0.0 50:1.0 59:1.0 130:1.0 143:1.0 166:1.0 175:1.0 208:1.0 266:1.0 294:1.0 382:1.0 399:1.0 
-1.0 0.0 0.0 102:1.0 130:2.0 208:1.0 317:1.0 343:1.0 363:1.0 381:1.0 382:2.0 399:1.0 400:1.0 
-0.8190980951648494 0.0 0.0 8:2.0 160:2.0 196:1.0 208:1.0 309:1.0 317:1.0 399:1.0 
-1.0 0.0 0.0 21:1.0 138:1.0 208:1.0 352:1.0 399:1.0 
-1.0 0.0 0.0 21:1.0 183:1.0 208:1.0 212:1.0 244:1.0 399:1.0 412:1.0 
-0.9544238877618787 0.0 0.0 60:1.0 143:1.0 175:1.0 183:1.0 208:1.0 324:1.0 326:1.0 399:1.0 
-1.0 0.0 0.0 97:1.0 161:2.0 208:1.0 209:1.0 255:1.0 266:1.0 399:1.0 
-0.024856390703193062 0.0 0.29481520548448875 127:1.0 134:1.0 208:1.0 216:1.0 340:1.0 399:1.0 
-1.0 0.0 0.0 21:3.0 208:1.0 399:1.0 
-1.0 0.23324649278230164 0.3143450498991024 194:1.0 208:1.0 282:1.0 399:1.0 
-1.0 0.0 0.0 8:1.0 81:1.0 109:3.0 134:1.0 208:1.0 249:1.0 281:1.0 399:1.0 
-0.24743051746805883 0.0 0.0 130:1.0 132:1.0 154:1.0 208:1.0 212:1.0 301:1.0 366:2.0 380:1.0 399:1.0 
-1.0 0.0 0.0 21:2.0 31:1.0 83:1.0 208:1.0 279:1.0 305:1.0 323:2.0 382:1.0 399:1.0 
-0.0 0.0 0.14881013058608986 183:1.0 208:1.0 226:1.0 365:1.0 398:2.0 399:1.0 
-0.0 0.0 0.009219902411089309 8:1.0 28:2.0 119:1.0 208:1.0 291:1.0 398:1.0 399:1.0 
-1.0 0.0 0.0 21:2.0 63:1.0 140:1.0 208:1.0 399:1.0 
-0.40780892049117506 1.0 0.0 175:1.0 208:1.0 235:1.0 317:1.0 363:1.0 391:1.0 399:1.0 
-0.2108867780442925 0.0 0.0 85:1.0 208:1.0 282:1.0 324:1.0 393:1.0 399:1.0 413:1.0 
-1.0 0.0 0.0 8:1.0 130:1.0 143:1.0 208:1.0 317:1.0 366:1.0 382:1.0 399:1.0 
-0.009228552573838204 0.0 0.0 2:2.0 31:1.0 193:1.0 208:1.0 255:1.0 266:1.0 315:1.0 340:1.0 399:1.0 
-1.0 0.03988593681198772 0.0 142:1.0 208:1.0 330:1.0 358:1.0 382:2.0 399:1.0 
-1.0 0.0 0.004011708280870463 63:1.0 95:1.0 245:1.0 317:1.0 324:1.0 395:1.0 399:1.0 
-1.0 0.80725059200942 0.46436768999630856 37:1.0 323:1.0 379:1.0 399:1.0 
-1.0 1.0 1.0 183:1.0 399:1.0 
-1.0 0.0 0.0 130:1.0 152:1.0 212:1.0 222:1.0 323:1.0 382:1.0 394:1.0 399:1.0 
-1.0 1.0 1.0 424:1.0 
-1.0 0.5048873660406165 0.0 210:1.0 317:1.0 343:1.0 
-1.0 0.006849712268512367 0.005562229826559596 8:1.0 81:1.0 134:1.0 184:1.0 305:1.0 323:1.0 324:1.0 399:1.0 400:1.0 
-1.0 0.45645252986771767 0.0 130:1.0 153:1.0 348:1.0 370:1.0 399:1.0 
-0.0 0.01383779921018704 0.0 130:2.0 253:1.0 270:1.0 294:1.0 323:1.0 367:1.0 
-1.0 0.4757532362110696 5.035161451623642E-4 25:1.0 130:1.0 147:1.0 178:1.0 317:1.0 382:1.0 399:1.0 400:1.0 
-1.0 1.0 0.0 153:1.0 255:1.0 323:1.0 370:1.0 399:1.0 
-1.0 0.0 0.0 85:1.0 116:1.0 128:1.0 153:1.0 255:1.0 399:1.0 413:1.0 424:1.0 428:1.0 434:1.0 
-0.2882589700120483 0.0 0.0 116:1.0 175:1.0 382:1.0 399:1.0 
-1.0 1.0 0.0 116:1.0 153:1.0 300:1.0 343:1.0 394:1.0 399:1.0 413:1.0 
-1.0 0.0980750518552071 0.0 51:1.0 109:1.0 116:1.0 399:1.0 
-1.0 0.5900402983056983 0.0 8:1.0 116:1.0 130:1.0 202:1.0 209:1.0 225:1.0 266:1.0 337:1.0 374:1.0 382:1.0 399:1.0 
-1.0 0.0 0.0 116:1.0 194:1.0 210:1.0 305:1.0 364:1.0 399:1.0 413:1.0 
-0.0 0.0 0.7342421835369641 116:1.0 
-0.0 0.0 0.18666781516171613 116:1.0 197:1.0 255:1.0 279:1.0 399:1.0 
-1.0 0.0 0.0 15:1.0 60:1.0 113:1.0 116:1.0 183:1.0 226:1.0 262:1.0 382:2.0 399:1.0 424:1.0 
-1.0 0.12337567783204925 0.0 2:1.0 21:1.0 63:1.0 116:1.0 153:1.0 399:1.0 
-1.0 1.0 0.4584704809868944 149:1.0 196:1.0 399:1.0 
-0.0 0.05293053685686429 0.0 10:1.0 166:1.0 253:1.0 372:1.0 
-1.0 0.06695671412265594 0.0 50:1.0 130:2.0 153:2.0 204:1.0 238:1.0 253:1.0 255:2.0 314:1.0 399:1.0 414:1.0 
-0.0 0.19456731810863567 0.0 10:1.0 155:1.0 253:1.0 310:1.0 320:1.0 352:1.0 382:1.0 
-0.0 0.0 0.3215722192733402 169:1.0 253:1.0 255:1.0 366:1.0 
-0.0 0.05702844325766727 0.0 77:1.0 190:1.0 212:1.0 253:1.0 397:1.0 
-0.0 0.5625004304162015 0.0 117:1.0 253:1.0 330:1.0 
-0.0 0.0 1.0 42:1.0 59:1.0 79:1.0 81:1.0 212:1.0 253:1.0 376:1.0 
-0.0 0.0 0.5134444167745206 21:1.0 41:1.0 85:1.0 131:1.0 253:1.0 367:1.0 417:1.0 
-1.0 0.0 0.0 21:1.0 113:1.0 239:1.0 253:1.0 254:1.0 323:1.0 365:1.0 382:1.0 399:1.0 424:1.0 
-0.5039232865618108 0.0 0.0 62:1.0 253:1.0 343:1.0 365:1.0 373:1.0 382:1.0 399:1.0 419:1.0 
-0.0 0.07598585111745577 0.0 110:2.0 153:1.0 253:1.0 303:1.0 330:2.0 
-0.0 0.0 0.0017920393155767384 31:1.0 81:1.0 140:1.0 165:1.0 220:1.0 253:1.0 374:1.0 395:1.0 
-0.0 0.011198033654707376 0.26309725752395435 21:1.0 253:1.0 288:1.0 330:1.0 397:1.0 
-0.0 0.02905392336105058 0.0 3:1.0 8:1.0 130:1.0 253:1.0 382:1.0 399:1.0 
-0.0 0.0012940495605682323 0.0 21:1.0 247:1.0 253:1.0 321:2.0 382:1.0 397:1.0 
-0.0 0.8700802945433187 0.0 45:1.0 110:2.0 209:1.0 253:1.0 413:1.0 422:1.0 
-0.05392090258993392 0.0 0.0 89:1.0 111:1.0 147:2.0 166:1.0 215:1.0 253:1.0 279:1.0 337:1.0 407:1.0 425:1.0 
-0.7990823162619877 0.15750926189869388 0.0 21:1.0 107:1.0 119:1.0 133:1.0 197:1.0 220:1.0 253:1.0 352:2.0 361:1.0 428:1.0 
-0.0 0.17798605108028 0.0 2:1.0 130:1.0 253:1.0 339:1.0 376:1.0 382:1.0 
-0.0 0.12355271990901258 0.0 212:2.0 253:1.0 387:2.0 413:1.0 
-0.0 0.0 0.04773111882408412 4:1.0 25:1.0 253:1.0 256:1.0 373:1.0 382:1.0 
-0.0 0.0010144609604567363 0.0 41:1.0 119:1.0 121:1.0 224:1.0 253:1.0 
-0.0 0.0 0.11763139073960847 71:1.0 128:1.0 130:1.0 177:1.0 223:1.0 253:1.0 273:1.0 382:1.0 
-0.0 0.0 0.12276290296630507 194:1.0 253:1.0 294:1.0 323:1.0 343:1.0 417:1.0 
-0.0 0.013853357334034078 0.17187857906915754 22:1.0 136:1.0 157:1.0 188:1.0 194:1.0 253:1.0 413:1.0 
-0.0 0.2144106166550425 0.0 12:1.0 31:1.0 92:1.0 119:1.0 166:1.0 253:1.0 397:1.0 
-0.0 0.10191555539427323 0.0 73:1.0 147:1.0 253:1.0 307:2.0 323:1.0 376:1.0 
-1.0 0.0 0.0 30:1.0 31:1.0 104:1.0 194:2.0 253:1.0 254:1.0 381:1.0 397:1.0 398:1.0 422:1.0 
-1.0 0.12069090762764563 0.0 10:1.0 30:1.0 31:1.0 50:1.0 167:1.0 181:1.0 253:1.0 305:1.0 382:2.0 398:1.0 
-0.0 0.10029871710321384 0.0 2:1.0 130:1.0 212:2.0 253:1.0 300:1.0 357:1.0 413:1.0 
-0.0 0.750734667501784 0.0 194:1.0 253:1.0 283:1.0 407:1.0 
-0.0 0.4480498430649501 0.0 130:1.0 178:1.0 209:1.0 253:1.0 
-1.0 0.008621713170127745 0.0 63:1.0 85:1.0 138:1.0 153:1.0 228:1.0 242:1.0 338:1.0 376:1.0 399:1.0 
-1.0 0.0 0.0 8:1.0 153:1.0 161:1.0 175:1.0 194:1.0 228:1.0 370:1.0 399:1.0 422:1.0 
-0.5717077221552349 0.0 0.0 10:1.0 148:1.0 183:1.0 228:1.0 399:1.0 
-1.0 0.1607822407575953 0.0 45:1.0 228:1.0 301:1.0 382:2.0 399:1.0 
-0.0 0.21739449427263247 0.0 21:1.0 42:1.0 170:1.0 212:1.0 228:1.0 382:1.0 399:1.0 
-0.0 0.19968465342209385 0.08770944002499326 228:1.0 294:1.0 419:2.0 
-0.0 0.2753097569608167 0.0 11:1.0 97:1.0 130:2.0 186:1.0 228:1.0 254:1.0 366:1.0 382:1.0 399:1.0 
-1.0 0.0 0.0 2:1.0 104:1.0 122:1.0 161:1.0 228:1.0 255:1.0 323:1.0 382:1.0 399:1.0 417:1.0 
-1.0 0.02079775559182632 0.0 31:1.0 104:1.0 134:1.0 166:1.0 226:1.0 228:1.0 247:1.0 382:1.0 399:1.0 
-1.0 0.0 0.0 8:1.0 21:1.0 126:1.0 153:1.0 210:1.0 220:1.0 228:1.0 317:2.0 399:1.0 
-0.0 0.0 0.02382310955216247 55:1.0 212:1.0 228:1.0 399:1.0 417:1.0 
-0.14055054248808718 1.0 1.0 21:2.0 228:1.0 399:1.0 
-1.0 0.5325798375600924 0.14408784151352597 63:1.0 95:1.0 245:1.0 317:1.0 324:1.0 395:1.0 399:1.0 
-1.0 1.0 0.2672140645986433 2:2.0 147:1.0 269:1.0 399:1.0 401:1.0 412:1.0 
-0.6182468512631881 0.0 0.0 183:1.0 212:1.0 316:1.0 399:2.0 401:1.0 
-0.6454353180849539 1.0 0.0 146:1.0 212:1.0 382:1.0 399:1.0 401:1.0 
-1.0 0.0 0.0 103:1.0 247:1.0 276:1.0 366:1.0 399:1.0 401:1.0 430:1.0 
-0.19424291727082413 0.13735738332683484 0.19644454262166094 153:1.0 352:1.0 399:1.0 401:1.0 
-1.0 0.0 0.0 2:1.0 49:1.0 53:1.0 130:1.0 183:2.0 343:1.0 365:1.0 399:1.0 
-0.0 1.0 0.0820586001066318 2:1.0 49:1.0 279:1.0 399:1.0 
-0.4192491863502844 0.06489209962410478 0.10883577505678162 49:1.0 88:1.0 130:1.0 137:1.0 171:1.0 212:1.0 386:1.0 
-1.0 0.10357438916733136 0.1619238350462931 49:1.0 146:1.0 323:1.0 382:1.0 399:1.0 424:1.0 
-1.0 0.6207274069479133 0.10887508234421178 49:1.0 151:1.0 177:1.0 281:1.0 399:1.0 
-1.0 0.8073164354313612 0.12279861534958632 63:1.0 113:1.0 183:1.0 323:1.0 337:1.0 399:1.0 419:1.0 
-1.0 1.0 1.0 183:1.0 399:1.0 
-1.0 0.0 0.0 130:1.0 152:1.0 212:1.0 222:1.0 323:1.0 382:1.0 394:1.0 399:1.0 
-1.0 1.0 1.0 424:1.0 
-1.0 1.0 0.4866538135247425 210:1.0 317:1.0 343:1.0 
-1.0 0.3258134347190785 0.41625847903755175 8:1.0 81:1.0 134:1.0 184:1.0 305:1.0 323:1.0 324:1.0 399:1.0 400:1.0 
-1.0 0.7388053780008189 0.0 130:1.0 153:1.0 348:1.0 370:1.0 399:1.0 
-0.0 0.06347138449379547 0.0 130:2.0 253:1.0 270:1.0 294:1.0 323:1.0 367:1.0 
-1.0 0.9915141882622658 0.39881796458663893 25:1.0 130:1.0 147:1.0 178:1.0 317:1.0 382:1.0 399:1.0 400:1.0 
-1.0 1.0 0.5854145855587619 153:1.0 255:1.0 323:1.0 370:1.0 399:1.0 
-1.0 1.0 0.14800604129143072 12:1.0 62:1.0 281:1.0 317:1.0 336:1.0 
-1.0 1.0 0.9240084443324862 63:1.0 254:1.0 367:1.0 
-1.0 1.0 0.9167379769246025 364:1.0 399:1.0 
-0.7121560106141193 0.0 0.0 152:1.0 399:1.0 
-1.0 0.0 0.0 75:1.0 152:1.0 255:1.0 399:1.0 
-1.0 0.0 0.0 2:1.0 152:1.0 399:1.0 
-1.0 0.0 0.0 2:1.0 152:1.0 399:1.0 
-0.83235756967075 0.0 0.0 107:1.0 130:1.0 152:1.0 207:1.0 399:1.0 
-1.0 0.0 0.0 31:1.0 152:1.0 183:1.0 281:1.0 317:1.0 399:1.0 
-0.5488759818353791 0.0 0.0 20:1.0 76:1.0 152:1.0 158:1.0 267:1.0 361:1.0 399:1.0 424:1.0 
-0.0 0.005191494127550462 0.0 8:1.0 74:1.0 76:1.0 152:1.0 175:1.0 237:1.0 399:1.0 
-1.0 0.0 0.0 152:1.0 166:1.0 279:1.0 399:1.0 
-0.8228661547386219 0.0 0.3167227913597044 2:1.0 152:1.0 172:1.0 194:1.0 262:1.0 399:1.0 400:1.0 
-0.6828908842787033 0.0 0.0 152:1.0 399:1.0 
-1.0 0.0 0.0 152:1.0 244:1.0 399:1.0 
-1.0 0.0 0.0 152:1.0 399:1.0 
-0.9873643156354232 0.0 0.0 83:1.0 92:1.0 152:1.0 399:1.0 422:1.0 
-1.0 0.0 0.0 152:1.0 399:1.0 
-0.6174927461596899 0.0 0.09074392257484878 2:1.0 8:1.0 122:1.0 130:1.0 138:1.0 152:1.0 325:1.0 343:1.0 399:1.0 
-1.0 0.0 0.0 152:1.0 399:1.0 
-0.15185993587469312 0.0 0.0 21:1.0 152:1.0 216:1.0 221:1.0 262:1.0 317:2.0 369:1.0 399:1.0 413:1.0 
-0.45001080970120294 0.0 0.0 2:1.0 10:1.0 152:1.0 162:1.0 210:1.0 279:1.0 399:1.0 416:1.0 424:1.0 
-1.0 0.0 0.0 152:1.0 153:1.0 399:1.0 421:1.0 
-1.0 0.22988122265676 0.0 21:1.0 147:1.0 152:1.0 166:1.0 172:1.0 399:1.0 
-1.0 0.0 0.04648614285621597 131:1.0 140:1.0 152:1.0 158:1.0 178:1.0 399:1.0 413:1.0 
-1.0 0.0 0.22669468822781094 133:1.0 138:1.0 152:1.0 399:1.0 
-1.0 0.0 0.0 152:1.0 166:1.0 399:1.0 
-1.0 0.0 0.0 12:1.0 104:1.0 130:1.0 138:1.0 152:1.0 282:1.0 376:1.0 399:1.0 407:1.0 
-1.0 0.0 0.0 152:1.0 279:1.0 343:1.0 382:1.0 399:1.0 413:1.0 
-1.0 0.0 0.06191589953856005 8:1.0 31:1.0 104:1.0 138:1.0 152:1.0 194:1.0 212:1.0 399:1.0 417:1.0 430:1.0 
-0.1763514443386717 0.0 0.0 152:1.0 315:1.0 323:1.0 399:1.0 
-1.0 0.0 0.024389862891730688 31:1.0 62:1.0 152:1.0 367:1.0 399:1.0 414:1.0 
-1.0 0.0 0.22746027929225993 89:1.0 130:1.0 152:1.0 174:1.0 262:1.0 343:1.0 399:1.0 
-1.0 0.6221628221374818 0.0 130:2.0 152:1.0 247:1.0 399:1.0 435:1.0 
-1.0 0.0 0.0 104:1.0 152:1.0 153:1.0 317:1.0 399:1.0 
-0.03774685245290858 0.0 0.0 152:1.0 317:2.0 399:1.0 422:1.0 
-0.27458362780492107 0.0 0.0 152:1.0 170:1.0 254:1.0 338:1.0 399:1.0 
-1.0 0.0 0.0 130:1.0 152:1.0 397:1.0 399:1.0 424:1.0 
-1.0 1.0 1.0 
-1.0 0.0 0.0 152:1.0 399:1.0 
-1.0 0.0 0.0 152:1.0 399:1.0 
-1.0 0.008824623008404468 0.2392686311939128 9:1.0 152:1.0 258:1.0 310:1.0 359:1.0 399:1.0 
-0.3883188058278145 0.0 0.0 76:1.0 143:1.0 152:1.0 317:2.0 354:1.0 399:1.0 
-0.0 0.05541450446061219 0.0 146:1.0 152:1.0 278:1.0 399:1.0 
-1.0 0.0 0.0 152:1.0 399:1.0 
-0.7741651358124986 0.0 0.0 6:1.0 39:1.0 152:1.0 178:1.0 226:1.0 284:1.0 382:1.0 399:1.0 411:1.0 430:1.0 
-1.0 0.0 0.0 152:1.0 399:1.0 
-1.0 0.0 0.0 12:1.0 152:1.0 399:1.0 
-1.0 0.0 0.0 138:1.0 152:1.0 269:1.0 323:1.0 399:1.0 
-1.0 0.0 0.17771287741178293 8:1.0 21:1.0 152:1.0 399:1.0 
-1.0 0.0 0.0 21:1.0 53:1.0 85:2.0 152:1.0 399:1.0 426:1.0 
-0.12893586007610994 0.0 0.0 50:1.0 152:1.0 153:1.0 212:1.0 399:1.0 404:1.0 
-0.0 0.5116044511973529 0.0 74:1.0 152:1.0 317:1.0 399:1.0 
-0.3379508111259925 0.0 0.0 2:1.0 50:1.0 152:1.0 160:1.0 184:1.0 399:1.0 422:1.0 
-1.0 0.0 0.0 152:1.0 399:1.0 
-1.0 0.5933583731593419 0.0 152:1.0 237:1.0 266:1.0 305:1.0 382:1.0 399:1.0 424:1.0 433:1.0 
-1.0 0.0 0.0 152:1.0 158:1.0 212:1.0 365:1.0 397:1.0 399:1.0 419:1.0 
-1.0 0.11766084094060188 0.0 2:1.0 8:1.0 152:1.0 304:1.0 330:1.0 338:1.0 367:1.0 397:1.0 399:1.0 
-0.5418453151809283 0.0 0.0 152:1.0 161:1.0 304:1.0 399:1.0 402:1.0 
-1.0 1.0 1.0 
-1.0 0.0 0.0 133:1.0 152:1.0 399:1.0 
-1.0 0.0 0.0 31:1.0 136:1.0 140:1.0 152:1.0 255:1.0 271:1.0 317:1.0 343:1.0 371:1.0 399:1.0 413:1.0 
-0.4218467647351934 0.0 0.0 8:1.0 152:1.0 175:1.0 209:1.0 212:1.0 247:1.0 307:1.0 399:1.0 435:1.0 
-1.0 0.0 0.0 152:1.0 399:1.0 
-1.0 0.0 0.005162408555498087 152:1.0 212:1.0 255:1.0 283:1.0 343:1.0 374:1.0 399:1.0 
-1.0 0.0 0.0 8:1.0 147:1.0 152:1.0 255:1.0 309:1.0 399:1.0 413:1.0 
-1.0 0.0 0.3333050785937623 152:1.0 255:1.0 399:1.0 424:1.0 
-1.0 0.0 0.0 8:1.0 134:1.0 152:1.0 399:1.0 
-1.0 0.0 0.0 152:1.0 153:1.0 222:1.0 305:1.0 323:1.0 370:1.0 399:1.0 413:1.0 
-1.0 0.0 0.0 8:1.0 152:1.0 399:1.0 412:1.0 
-1.0 0.0 0.0 8:2.0 104:1.0 152:1.0 194:1.0 210:1.0 337:1.0 343:1.0 399:1.0 407:1.0 
-1.0 0.9818603420506588 0.0 41:1.0 50:1.0 152:1.0 317:1.0 397:1.0 399:1.0 
-0.14602869616506145 0.0 0.0 98:1.0 152:1.0 233:1.0 382:1.0 399:1.0 
-0.011184757652547613 0.0 0.0 152:1.0 183:1.0 283:1.0 399:1.0 
-1.0 0.055267738804367694 0.29658051803058805 75:1.0 117:1.0 140:1.0 152:1.0 365:2.0 399:1.0 
-1.0 0.0 0.0 152:1.0 399:1.0 
-1.0 0.0 0.0 96:1.0 152:1.0 317:1.0 399:2.0 
-1.0 0.0 0.19330608586392817 152:1.0 255:1.0 399:1.0 413:1.0 
-1.0 0.09222279130521385 0.032375522324262704 31:1.0 81:1.0 147:1.0 152:1.0 158:1.0 159:1.0 247:1.0 399:1.0 
-1.0 0.0 0.0 10:1.0 152:1.0 274:1.0 399:1.0 
-0.0 0.005671660270811053 0.0 152:1.0 310:1.0 397:1.0 399:1.0 426:1.0 
-1.0 0.0 0.0 137:1.0 152:1.0 281:1.0 374:1.0 376:1.0 395:1.0 399:1.0 
-0.0 0.0 2.261022373199785E-4 76:1.0 152:1.0 250:1.0 343:1.0 399:1.0 
-1.0 0.0 0.15210345957785062 43:1.0 147:1.0 152:1.0 194:1.0 210:1.0 222:1.0 262:1.0 343:1.0 399:1.0 
-0.9479265022540214 0.0 0.0 2:1.0 40:1.0 152:1.0 274:1.0 366:1.0 399:1.0 
-0.7737642366406726 0.3422457936702779 0.08132624941413616 2:1.0 142:1.0 152:1.0 232:2.0 279:1.0 295:1.0 343:1.0 365:1.0 381:1.0 399:1.0 413:1.0 
-1.0 0.29307664294505303 0.0 2:2.0 10:1.0 55:1.0 146:1.0 152:1.0 226:1.0 254:1.0 316:1.0 382:1.0 385:1.0 399:2.0 
-1.0 0.0 0.0 71:1.0 77:1.0 110:2.0 152:1.0 323:1.0 327:1.0 343:1.0 399:1.0 
-1.0 0.0 0.0 152:1.0 153:1.0 258:1.0 397:1.0 399:1.0 
-1.0 0.0 0.0 147:1.0 152:1.0 153:1.0 174:1.0 367:1.0 399:1.0 
-1.0 0.0 0.0 138:1.0 152:1.0 399:1.0 
-1.0 0.0 0.0 74:1.0 142:1.0 152:1.0 254:1.0 398:1.0 399:1.0 428:1.0 
-1.0 0.0 0.0 152:1.0 175:1.0 264:1.0 268:1.0 305:1.0 317:1.0 382:1.0 399:1.0 
-0.22387920670671058 0.0 0.0 31:1.0 152:1.0 399:1.0 
-0.4603522687839237 0.0 0.8583784874715774 130:1.0 152:1.0 399:1.0 420:1.0 
-1.0 0.0 0.0 21:1.0 152:1.0 183:1.0 367:1.0 374:1.0 399:1.0 
-0.5805055480145651 0.0 0.0 31:1.0 152:1.0 171:1.0 399:1.0 
-1.0 0.0 0.3059611102230702 134:1.0 152:1.0 255:1.0 315:1.0 332:1.0 343:1.0 373:1.0 399:1.0 
-0.5552002095518466 0.08410613601869898 0.0 31:1.0 81:2.0 152:1.0 158:1.0 212:3.0 399:1.0 422:1.0 
-1.0 0.0 0.0 152:1.0 299:1.0 399:1.0 
-1.0 0.0 0.0 2:1.0 20:1.0 152:1.0 162:1.0 399:1.0 
-1.0 0.0 0.0 152:1.0 183:1.0 399:1.0 
-0.7201787870148011 0.0 0.0 31:1.0 86:1.0 152:1.0 183:1.0 209:1.0 382:1.0 399:1.0 
-1.0 0.04552059047724953 0.20372532483273845 31:1.0 130:1.0 152:1.0 163:1.0 179:1.0 212:1.0 263:1.0 282:1.0 287:1.0 399:1.0 
-1.0 0.08591779430754354 0.0 130:1.0 152:1.0 341:1.0 387:1.0 399:1.0 
-0.0 0.0 0.20862237101634373 6:1.0 63:1.0 152:1.0 183:1.0 293:1.0 399:1.0 
-0.8906556467899933 0.0 0.0 152:1.0 399:1.0 
-0.5852838768306111 0.0 0.0 8:1.0 152:1.0 184:1.0 355:1.0 376:1.0 399:1.0 
-1.0 0.0 0.0 8:1.0 85:1.0 128:1.0 133:1.0 152:1.0 254:1.0 266:1.0 382:1.0 399:1.0 
-1.0 0.029181273231212793 0.0 8:1.0 73:1.0 130:1.0 152:1.0 175:1.0 209:2.0 217:1.0 309:1.0 399:1.0 424:1.0 
-0.08240117324550007 0.0 0.0 8:1.0 152:1.0 153:1.0 212:1.0 274:1.0 320:1.0 399:1.0 419:1.0 434:1.0 
-0.0 0.8418674934463857 0.5337807618905812 9:1.0 152:1.0 399:1.0 
-1.0 0.0 0.0 152:1.0 167:1.0 282:1.0 399:1.0 
-1.0 0.0 0.23145214417674778 152:1.0 175:1.0 255:1.0 311:1.0 399:1.0 
-1.0 0.0 0.0 152:1.0 153:1.0 370:1.0 373:1.0 382:1.0 399:1.0 413:1.0 424:1.0 
-1.0 0.0 0.0 152:1.0 399:1.0 
-0.19820602477956006 0.0 0.0 42:1.0 152:1.0 179:1.0 399:1.0 
-1.0 0.0 0.0 130:1.0 152:1.0 153:1.0 212:1.0 370:1.0 399:1.0 
-0.0582071178430909 0.0 0.05840075687477725 51:1.0 152:1.0 209:1.0 319:1.0 343:1.0 395:1.0 399:1.0 
-1.0 0.0 0.0 152:1.0 153:1.0 399:1.0 
-1.0 0.0 0.0 108:1.0 152:1.0 279:1.0 330:1.0 343:1.0 381:1.0 382:1.0 399:1.0 
-1.0 0.0 0.0 6:1.0 152:1.0 214:1.0 363:1.0 399:1.0 409:1.0 
-1.0 0.0 0.0 104:1.0 152:1.0 399:1.0 
-0.43435009293124777 0.0 0.0 152:1.0 303:1.0 399:1.0 413:1.0 
-1.0 0.0 0.0 152:1.0 282:1.0 307:1.0 399:1.0 413:1.0 422:1.0 
-1.0 0.03822530012166394 0.17190761821921088 81:1.0 152:1.0 161:1.0 383:1.0 399:1.0 
-0.5638104258938198 0.0 0.0 8:1.0 51:1.0 152:1.0 178:1.0 317:1.0 382:1.0 399:1.0 426:1.0 
-1.0 0.0 0.047877246826218946 152:1.0 212:1.0 255:1.0 399:1.0 
-0.0 0.0801702058257362 0.0 8:1.0 152:1.0 212:1.0 344:1.0 399:1.0 
-1.0 0.0 0.0 2:1.0 152:1.0 212:1.0 399:1.0 
-1.0 0.0 0.10069129894328976 8:1.0 32:1.0 50:1.0 152:1.0 177:1.0 212:1.0 214:1.0 399:1.0 
-1.0 0.0 0.0 152:1.0 399:1.0 
-1.0 0.0 0.1275093845724052 152:1.0 161:1.0 256:1.0 275:1.0 303:2.0 370:1.0 399:1.0 
-1.0 0.0 0.0 8:1.0 31:1.0 152:1.0 209:1.0 255:1.0 279:1.0 382:1.0 399:1.0 
-1.0 0.0 0.0 152:1.0 399:1.0 
-0.5662700590519617 0.0 0.0 8:1.0 152:1.0 382:1.0 399:1.0 426:1.0 435:1.0 
-1.0 0.0 0.0 31:1.0 152:1.0 212:1.0 268:1.0 304:1.0 347:1.0 399:1.0 
-1.0 0.0 0.0 152:1.0 348:1.0 399:1.0 
-1.0 0.0 0.38001525190527446 8:1.0 105:1.0 130:1.0 152:1.0 212:1.0 217:1.0 255:1.0 399:1.0 413:1.0 
-0.4058671497468042 0.02913049163005672 0.0 147:1.0 152:1.0 191:1.0 310:1.0 399:1.0 
-0.16995851402221054 0.0 0.21731306765078814 41:1.0 152:1.0 305:1.0 318:1.0 399:1.0 
-1.0 0.2636341550645387 0.0 152:1.0 209:1.0 281:1.0 367:1.0 399:1.0 
-1.0 0.0 0.0 2:1.0 152:1.0 399:1.0 
-0.6063350145983094 0.0 0.0 60:1.0 152:1.0 292:1.0 304:2.0 399:1.0 426:1.0 
-1.0 0.0 0.6281975270276826 152:1.0 161:1.0 399:1.0 
-1.0 0.18962624148665072 0.0 2:1.0 31:1.0 152:1.0 399:1.0 
-1.0 0.06606482873102898 0.0 147:1.0 152:1.0 212:1.0 309:1.0 399:1.0 413:1.0 425:1.0 
-0.0 0.0 0.021897576914876284 152:1.0 171:1.0 255:1.0 399:1.0 426:1.0 
-0.17997273114817264 0.0 0.0 108:1.0 152:1.0 330:1.0 399:1.0 
-0.5473952176490533 0.0 0.0 6:1.0 19:1.0 44:1.0 152:1.0 282:1.0 399:1.0 413:1.0 
-0.7052578396732359 0.0 0.012282539697440122 44:1.0 47:1.0 152:1.0 361:1.0 373:1.0 399:1.0 
-1.0 0.0 0.0 130:1.0 152:1.0 365:1.0 399:1.0 
-1.0 0.0 0.0 8:1.0 152:1.0 212:1.0 363:1.0 374:1.0 399:1.0 
-1.0 0.0 0.0 31:1.0 130:1.0 152:1.0 254:1.0 399:1.0 
-1.0 0.0 0.0 83:1.0 134:1.0 152:1.0 241:1.0 399:1.0 
-1.0 0.0 0.0 152:1.0 399:1.0 
-0.358030168950387 0.0 0.0 2:1.0 63:1.0 83:1.0 130:1.0 134:1.0 152:1.0 175:1.0 305:1.0 399:1.0 
-1.0 0.052825337392241774 0.0 31:1.0 76:1.0 152:1.0 382:1.0 399:2.0 
-0.11678602503192903 0.0 0.0 53:1.0 82:1.0 152:1.0 399:1.0 422:1.0 
-0.18925962678996397 0.0 0.29242566931427505 138:1.0 152:1.0 255:1.0 399:1.0 409:1.0 
-0.3429633866753738 0.0 0.0 97:1.0 152:1.0 212:1.0 255:1.0 399:1.0 413:1.0 
-1.0 0.5269243124762046 0.0 110:2.0 152:1.0 399:1.0 
-1.0 0.3621770095506176 0.0 89:1.0 152:1.0 266:1.0 279:1.0 399:1.0 
-1.0 0.0 0.13141876104177355 24:1.0 152:1.0 161:1.0 226:1.0 282:1.0 358:1.0 399:1.0 
-0.16783726829218518 0.358234098157575 0.0 8:1.0 142:1.0 152:1.0 183:1.0 212:1.0 247:1.0 300:1.0 399:1.0 413:1.0 
-0.9055675348815821 0.0 0.0 31:1.0 110:2.0 152:1.0 212:2.0 224:1.0 254:1.0 343:1.0 376:1.0 399:1.0 
-1.0 0.0 0.0 104:1.0 127:1.0 138:1.0 152:1.0 343:1.0 346:1.0 399:1.0 
-1.0 0.0 0.0 152:1.0 329:1.0 343:1.0 399:1.0 
-1.0 0.0 0.0 108:1.0 152:1.0 175:1.0 185:1.0 330:1.0 399:1.0 
-0.07677381983005467 0.0 0.0 108:1.0 152:1.0 330:1.0 399:1.0 
-1.0 0.0 0.00788990278495693 55:1.0 152:1.0 399:1.0 
-0.08354914099750331 0.0 0.0 6:2.0 130:1.0 152:1.0 315:1.0 317:2.0 343:1.0 347:1.0 399:1.0 
-1.0 0.13856309609102485 0.0 136:1.0 152:1.0 153:1.0 194:1.0 212:1.0 304:1.0 382:1.0 399:1.0 
-1.0 0.0 0.0 130:1.0 152:1.0 161:1.0 183:1.0 283:1.0 399:1.0 427:1.0 
-0.4783558310180992 0.0 0.0 31:1.0 74:1.0 85:1.0 103:1.0 152:1.0 175:1.0 254:1.0 367:1.0 370:1.0 382:1.0 399:1.0 
-1.0 0.0 0.0 57:1.0 152:1.0 178:1.0 230:1.0 282:1.0 382:1.0 399:1.0 413:1.0 
-1.0 0.0 0.0 152:1.0 399:2.0 
-1.0 0.0 0.0 152:1.0 166:1.0 212:2.0 399:1.0 
-1.0 0.0 0.0 16:1.0 47:1.0 76:1.0 152:1.0 317:1.0 345:1.0 365:1.0 399:1.0 
-1.0 0.3958814552379361 0.0 8:1.0 31:1.0 152:1.0 212:1.0 254:1.0 300:1.0 399:1.0 413:1.0 
-1.0 0.0 0.178129953312593 130:1.0 152:1.0 161:2.0 175:1.0 287:1.0 399:1.0 
-1.0 0.0 0.0 2:1.0 152:1.0 153:1.0 178:1.0 303:1.0 376:1.0 382:1.0 398:1.0 399:1.0 
-1.0 0.0 0.0 2:1.0 21:1.0 152:1.0 317:2.0 399:1.0 
-1.0 0.0 0.0 152:1.0 317:1.0 399:1.0 406:1.0 
-0.26801864806751036 0.0 0.0 6:1.0 152:1.0 255:1.0 399:1.0 413:1.0 422:1.0 
-0.4265592050741448 0.0 0.0 6:1.0 104:2.0 152:1.0 255:1.0 282:1.0 343:1.0 399:1.0 
-1.0 0.36484548696160396 0.0 147:1.0 152:1.0 212:1.0 237:1.0 399:2.0 422:1.0 
-1.0 0.0 0.0 6:1.0 8:1.0 47:1.0 122:1.0 152:1.0 153:1.0 343:1.0 382:1.0 399:1.0 413:1.0 
-0.4713219195019292 0.0 0.0 152:1.0 399:1.0 
-1.0 0.0 0.24401490621457606 130:1.0 152:1.0 229:1.0 263:1.0 309:1.0 399:1.0 413:1.0 
-1.0 0.0 1.0 152:1.0 226:1.0 367:1.0 399:1.0 
-1.0 0.0 0.0 2:1.0 152:1.0 303:1.0 399:1.0 
-0.2887831569550685 0.0 0.0 139:1.0 152:1.0 382:1.0 399:1.0 
-1.0 0.0 0.0 2:1.0 152:1.0 271:1.0 399:1.0 431:1.0 
-0.02310396619592725 0.0 0.0 152:1.0 165:1.0 192:1.0 237:1.0 317:1.0 343:1.0 399:1.0 412:1.0 
-1.0 0.0 0.0 130:1.0 136:1.0 152:1.0 153:1.0 255:1.0 317:1.0 363:1.0 370:1.0 399:1.0 
-1.0 0.08692192064640222 0.0 152:1.0 183:1.0 194:1.0 283:1.0 399:1.0 427:1.0 
-0.0 0.0 0.03593886211275916 146:1.0 152:1.0 217:1.0 265:1.0 395:1.0 399:1.0 413:1.0 
-0.0 0.0 0.013556711633133085 41:1.0 98:1.0 152:1.0 399:1.0 
-1.0 0.0 0.0 2:1.0 152:1.0 399:1.0 
-1.0 0.0 0.17669046847133615 119:1.0 152:1.0 399:1.0 
-0.0801314660505126 0.6730061028776817 0.0 152:1.0 153:1.0 168:1.0 399:1.0 
-1.0 0.0 0.0 152:1.0 399:1.0 
-0.6336277942201936 0.0 0.0 56:1.0 152:1.0 317:1.0 374:1.0 399:1.0 400:1.0 
-1.0 0.0 0.0 2:1.0 152:1.0 399:1.0 
-1.0 0.0 0.0 152:1.0 399:1.0 
-1.0 0.0 0.0 152:1.0 382:1.0 399:1.0 
-1.0 0.0 0.0 8:1.0 152:1.0 161:1.0 186:1.0 244:1.0 247:1.0 305:1.0 317:1.0 337:1.0 399:1.0 
-1.0 0.6739242388814579 0.0 8:2.0 41:1.0 81:1.0 126:1.0 130:1.0 152:1.0 361:1.0 374:1.0 397:1.0 399:1.0 
-1.0 0.0 0.0 2:1.0 152:1.0 337:1.0 383:1.0 399:1.0 419:1.0 430:1.0 
-1.0 0.0 0.0 152:1.0 330:1.0 399:1.0 
-1.0 0.0 0.0 152:1.0 399:1.0 
-1.0 0.0 0.0 152:1.0 375:1.0 399:1.0 412:1.0 
-1.0 0.0 0.0 137:1.0 152:1.0 399:1.0 
-1.0 0.21912248119248398 0.0 135:1.0 152:1.0 294:1.0 367:1.0 399:1.0 
-1.0 0.0 0.0 8:1.0 152:1.0 345:1.0 399:1.0 
-0.08018182499353375 0.0 0.0 152:1.0 153:1.0 339:1.0 399:1.0 
-1.0 0.0 0.0 152:1.0 399:1.0 
-1.0 0.0 0.0 152:1.0 399:1.0 
-1.0 0.0 0.0 22:1.0 152:1.0 227:1.0 395:1.0 399:1.0 413:1.0 
-1.0 0.0 0.0 152:1.0 222:1.0 245:1.0 323:1.0 399:1.0 419:2.0 
-1.0 0.0 0.040357364609433774 34:1.0 55:1.0 152:1.0 367:1.0 382:1.0 394:1.0 399:1.0 
-1.0 0.0 0.6479419638705683 130:1.0 152:1.0 399:1.0 
-0.9157278353746663 0.055199792644462835 0.0 6:2.0 114:1.0 130:1.0 152:1.0 153:1.0 229:1.0 270:1.0 399:1.0 
-1.0 0.0 0.0 152:1.0 374:1.0 382:1.0 395:1.0 399:2.0 
-0.6750580116852785 0.0 0.0 152:1.0 179:1.0 323:1.0 399:1.0 
-1.0 0.0 0.0 122:1.0 152:1.0 153:1.0 365:1.0 382:1.0 399:1.0 
-1.0 0.0 0.0 152:1.0 399:1.0 
-0.479947053133945 0.0 0.0 25:1.0 152:1.0 196:1.0 310:1.0 330:2.0 383:1.0 399:1.0 413:1.0 
-0.15216198535881645 0.0 0.0 152:1.0 399:1.0 424:1.0 
-0.0 0.0 0.44218531402133654 31:1.0 130:1.0 140:1.0 152:1.0 165:1.0 212:1.0 226:1.0 313:1.0 395:1.0 399:1.0 
-1.0 0.0 0.0 152:1.0 399:1.0 
-1.0 0.0 0.0 2:1.0 152:1.0 399:1.0 
-0.02506042823821436 0.0 0.0 31:1.0 152:1.0 399:1.0 
-0.0 0.04669789807217869 0.0 10:1.0 86:2.0 130:1.0 152:1.0 178:1.0 212:2.0 281:1.0 399:1.0 
-1.0 0.0 0.0 2:1.0 152:1.0 399:1.0 
-0.7656743012146923 0.0 0.0 31:1.0 123:1.0 152:1.0 212:1.0 258:1.0 399:1.0 
-1.0 0.0 0.0 152:1.0 399:1.0 
-0.0 0.0 0.14154998066388896 110:2.0 152:1.0 180:1.0 327:1.0 399:1.0 420:1.0 
-0.048819775143567334 0.0 0.0 8:1.0 90:1.0 152:1.0 175:1.0 317:1.0 365:1.0 399:1.0 
-1.0 0.0 0.42441988018582555 56:1.0 152:1.0 182:1.0 399:1.0 
-1.0 0.0 0.0 152:1.0 399:1.0 
-1.0 0.0 0.0 152:1.0 399:1.0 
-1.0 0.0 0.0 152:1.0 399:1.0 
-1.0 0.0 0.0 152:1.0 153:1.0 281:1.0 370:1.0 376:1.0 399:1.0 
-0.0 0.0 0.09566113409232194 6:1.0 142:1.0 152:1.0 255:1.0 399:1.0 
-0.0 0.0 0.283900165393365 14:1.0 138:1.0 152:2.0 153:1.0 255:1.0 257:1.0 399:1.0 
-1.0 0.0 0.0 126:1.0 152:1.0 183:1.0 193:1.0 194:1.0 279:1.0 381:1.0 399:1.0 
-0.1669292058080675 0.0 0.013669237943037111 41:1.0 152:1.0 378:1.0 399:1.0 
-0.8258891575450549 0.11183235665867139 0.20953309069560094 59:1.0 117:1.0 119:1.0 152:1.0 360:1.0 399:1.0 
-1.0 0.0 0.0 152:1.0 304:1.0 382:1.0 399:1.0 402:1.0 428:1.0 
-1.0 0.0 0.0 135:1.0 147:1.0 152:1.0 183:1.0 399:1.0 
-1.0 4.2244323264852327E-4 0.0 152:1.0 161:1.0 178:1.0 294:1.0 343:1.0 399:1.0 413:1.0 
-0.8331190031194238 0.0 0.0 8:1.0 51:1.0 152:1.0 175:1.0 304:1.0 367:1.0 399:1.0 
-0.0 0.0 0.9768814212044902 152:1.0 343:1.0 399:1.0 
-1.0 0.0 0.0 2:1.0 152:1.0 175:1.0 209:1.0 399:1.0 
-1.0 0.0 0.0 8:1.0 25:1.0 104:1.0 130:2.0 152:1.0 255:1.0 343:1.0 399:1.0 413:1.0 
-0.028865288019420454 0.0 0.0 31:1.0 152:1.0 399:1.0 
-0.8305371885088983 0.0 0.0 106:1.0 152:1.0 242:1.0 304:1.0 310:1.0 399:1.0 
-1.0 0.0 0.1768750640747761 152:1.0 217:1.0 247:1.0 343:1.0 399:1.0 428:1.0 
-1.0 0.0 0.0 8:1.0 152:1.0 317:1.0 343:1.0 382:1.0 399:1.0 
-0.12366162955149494 1.0 0.07879256114530338 152:1.0 235:1.0 280:1.0 282:1.0 300:1.0 395:1.0 399:1.0 413:1.0 
-1.0 0.0 0.0 152:1.0 399:1.0 
-0.0 0.0 0.004433166911845112 138:1.0 152:1.0 290:1.0 343:1.0 358:1.0 399:1.0 
-1.0 0.0 0.0 152:1.0 365:1.0 399:1.0 
-1.0 0.0 0.0 152:1.0 399:1.0 
-1.0 0.0 0.0 8:1.0 152:1.0 197:2.0 212:1.0 254:1.0 305:1.0 337:1.0 387:1.0 399:1.0 
-1.0 0.0 0.0 152:1.0 399:1.0 
-0.0 0.08441491125485541 0.0 6:1.0 8:1.0 108:1.0 138:1.0 152:1.0 282:1.0 330:1.0 375:1.0 399:1.0 
-0.0 0.0 0.12106707997335117 152:1.0 282:1.0 399:1.0 
-1.0 0.0 0.0 152:1.0 399:1.0 
-1.0 0.0 0.7930234196641245 152:1.0 330:1.0 399:1.0 423:1.0 
-1.0 0.0 0.0 152:1.0 382:1.0 399:1.0 
-0.0 0.0 0.08397134909017909 152:1.0 395:1.0 399:1.0 
-1.0 0.13182773043819135 1.0 21:1.0 31:1.0 152:1.0 399:1.0 
-1.0 0.0 0.7767609173616121 55:1.0 152:1.0 399:1.0 
-1.0 0.0 0.0 152:1.0 399:1.0 
-1.0 0.0 0.0 152:1.0 399:1.0 
-1.0 0.0 0.15250377535308585 74:1.0 152:1.0 255:1.0 399:1.0 
-1.0 0.0 0.0 130:1.0 152:1.0 166:1.0 175:1.0 212:1.0 399:1.0 
-0.685342914248849 0.0 0.0 2:1.0 8:1.0 152:1.0 254:1.0 399:1.0 
-1.0 0.2714136655392209 0.0 31:1.0 53:1.0 152:1.0 185:1.0 314:1.0 399:1.0 
-1.0 0.0 0.0 152:1.0 399:1.0 
-1.0 0.0 0.0 8:1.0 152:1.0 266:1.0 343:1.0 399:1.0 413:1.0 
-1.0 0.0 0.0 104:1.0 152:1.0 153:1.0 290:1.0 399:1.0 413:1.0 
-1.0 0.0 0.0 41:1.0 152:1.0 371:1.0 399:1.0 
-1.0 0.3085512322315788 0.0 21:1.0 41:1.0 152:1.0 247:1.0 366:1.0 399:1.0 
-1.0 0.0 0.0 152:1.0 399:1.0 
-1.0 0.0 0.0 152:1.0 399:1.0 
-0.17001979763522415 0.0 0.0 152:1.0 153:1.0 321:1.0 399:1.0 417:1.0 
-0.12623632358897102 0.0 0.0 137:2.0 152:2.0 222:1.0 247:1.0 309:1.0 399:1.0 426:1.0 
-1.0 0.0 0.8606659197037901 21:1.0 152:1.0 399:2.0 
-1.0 0.0 0.021403258648146416 130:1.0 152:1.0 217:1.0 248:1.0 366:1.0 399:1.0 432:1.0 
-1.0 0.0 1.0 152:1.0 373:1.0 399:1.0 
-1.0 0.0 0.0 152:1.0 153:1.0 281:1.0 399:1.0 421:1.0 432:1.0 
-1.0 0.07491416126889314 0.09116821925280111 152:1.0 194:1.0 212:1.0 335:1.0 371:1.0 399:2.0 
-0.17794636454938476 0.0 0.0 152:1.0 178:1.0 245:1.0 304:1.0 365:1.0 399:1.0 
-0.19300934418854027 0.0 0.0 2:1.0 152:1.0 212:1.0 271:1.0 327:1.0 351:1.0 399:1.0 
-0.9079059252085903 0.0 0.0 21:1.0 152:1.0 399:1.0 424:1.0 426:1.0 
-1.0 0.5026308806237668 0.5449591495085488 38:1.0 104:1.0 152:1.0 161:2.0 399:1.0 
-1.0 0.0 0.0 17:1.0 130:1.0 152:1.0 266:1.0 271:1.0 337:1.0 361:1.0 374:1.0 399:1.0 407:1.0 
-1.0 0.0 0.0 133:1.0 152:1.0 343:1.0 399:1.0 413:1.0 
-1.0 0.0 0.0 152:1.0 399:1.0 
-1.0 0.0 0.0 152:1.0 399:1.0 
-1.0 0.0 0.0 152:1.0 399:1.0 
-0.15730145413437568 0.0 0.0 31:1.0 152:1.0 399:1.0 
-1.0 0.0 0.0 134:1.0 152:1.0 399:1.0 
-0.48207467342212873 0.0 0.0 31:1.0 97:1.0 152:1.0 399:1.0 
-1.0 0.0 0.0 152:1.0 399:1.0 
-1.0 0.0 0.0 152:1.0 323:1.0 399:1.0 424:1.0 
-1.0 0.0 0.0 152:1.0 399:1.0 
-1.0 0.0 0.0 152:1.0 367:1.0 399:1.0 413:1.0 
-1.0 0.0 0.0 152:1.0 399:1.0 
-0.7513956205688447 0.0 0.0 2:1.0 152:1.0 212:1.0 399:1.0 424:1.0 
-1.0 0.0 0.0 152:1.0 399:1.0 
-0.0 0.0 0.4895617146344329 152:1.0 263:1.0 266:1.0 399:1.0 
-1.0 0.0 0.0 152:1.0 247:1.0 343:1.0 366:1.0 399:1.0 
-0.6419750943325195 0.0 0.610157023502807 31:1.0 152:1.0 399:1.0 
-1.0 0.0 0.0 27:1.0 143:1.0 152:1.0 153:1.0 370:1.0 399:1.0 
-1.0 0.0 0.0 77:1.0 115:1.0 152:1.0 399:1.0 
-1.0 0.0 0.0 152:1.0 399:1.0 
-0.21729554875627086 0.0 0.0 134:1.0 152:1.0 306:1.0 399:1.0 
-1.0 0.0 0.0 152:1.0 399:1.0 
-1.0 0.0 0.03528154295733639 40:1.0 140:1.0 152:1.0 175:1.0 185:1.0 399:1.0 427:1.0 
-1.0 0.0 0.0 152:1.0 399:1.0 
-1.0 0.0 0.0 152:1.0 399:1.0 
-0.9013636942650121 0.0 0.0 31:1.0 41:1.0 152:1.0 183:1.0 323:1.0 325:1.0 397:1.0 399:1.0 
-1.0 0.006937003532665968 0.0 41:1.0 152:1.0 247:1.0 382:1.0 399:1.0 
-1.0 0.0 0.0 43:1.0 55:1.0 62:1.0 152:1.0 266:1.0 373:1.0 399:1.0 
-1.0 0.0 0.0 152:1.0 399:1.0 
-0.0 0.0 1.0 152:1.0 343:1.0 399:1.0 
-1.0 0.0 0.0 152:1.0 153:1.0 399:1.0 
-1.0 0.0 0.0 152:1.0 399:1.0 
-1.0 0.0 0.6487786171935515 66:1.0 130:1.0 152:1.0 399:1.0 
-1.0 0.0 0.0 25:1.0 86:1.0 152:1.0 194:1.0 294:1.0 370:1.0 399:1.0 
-1.0 0.0 0.0 152:1.0 399:1.0 
-0.45065498170551616 0.0 0.1618242430238473 152:1.0 226:1.0 237:1.0 367:1.0 399:1.0 
-1.0 0.0 0.0 31:1.0 152:1.0 382:1.0 399:1.0 
-1.0 0.0 0.0 152:1.0 382:1.0 399:1.0 426:1.0 
-1.0 0.0 0.002582652478755808 20:1.0 41:1.0 152:1.0 220:1.0 344:1.0 399:2.0 
-1.0 0.0 0.0 152:1.0 382:1.0 399:1.0 
-1.0 0.0 0.0 152:1.0 399:1.0 
-0.9029368449861355 0.0 0.0 2:1.0 152:1.0 153:1.0 370:1.0 399:1.0 
-0.5595187391524904 0.0 0.0 6:1.0 25:1.0 152:1.0 363:1.0 399:1.0 
-0.8916510945558519 0.0 0.4537119067826865 71:1.0 119:1.0 152:1.0 153:1.0 175:1.0 323:1.0 399:1.0 
-1.0 0.0 0.0 152:1.0 399:1.0 
-1.0 0.0 0.0 152:1.0 399:1.0 
-1.0 0.0 0.0 152:1.0 399:1.0 
-1.0 0.0 0.0 152:1.0 399:1.0 
-1.0 -0.7546827235431006 1.0 376:1.0 
-1.0 -0.02124238980015666 0.0 63:1.0 113:1.0 147:1.0 169:2.0 194:2.0 237:1.0 254:1.0 290:1.0 389:1.0 399:1.0 
-1.0 -0.0 0.0 2:1.0 41:1.0 130:1.0 140:1.0 180:1.0 366:1.0 399:1.0 
-1.0 -1.0 0.4974439890671229 12:1.0 153:1.0 343:1.0 397:1.0 399:1.0 
-1.0 -0.031889761412063934 0.0 41:1.0 51:1.0 212:1.0 222:1.0 254:1.0 300:1.0 399:1.0 413:1.0 
-1.0 -0.0 0.0 16:1.0 130:2.0 140:1.0 247:1.0 269:1.0 310:1.0 323:1.0 393:1.0 399:1.0 
